{"learner":{"attributes":{"scikit_learn":"{\"_estimator_type\": \"classifier\"}"},"feature_names":[],"feature_types":[],"gradient_booster":{"model":{"gbtree_model_param":{"num_parallel_tree":"1","num_trees":"100"},"iteration_indptr":[0,1,2,3,4,5,6,7,8,9,10,11,12,13,14,15,16,17,18,19,20,21,22,23,24,25,26,27,28,29,30,31,32,33,34,35,36,37,38,39,40,41,42,43,44,45,46,47,48,49,50,51,52,53,54,55,56,57,58,59,60,61,62,63,64,65,66,67,68,69,70,71,72,73,74,75,76,77,78,79,80,81,82,83,84,85,86,87,88,89,90,91,92,93,94,95,96,97,98,99,100],"tree_info":[0,0,0,0,0,0,0,0,0,0,0,0,0,0,0,0,0,0,0,0,0,0,0,0,0,0,0,0,0,0,0,0,0,0,0,0,0,0,0,0,0,0,0,0,0,0,0,0,0,0,0,0,0,0,0,0,0,0,0,0,0,0,0,0,0,0,0,0,0,0,0,0,0,0,0,0,0,0,0,0,0,0,0,0,0,0,0,0,0,0,0,0,0,0,0,0,0,0,0,0],"trees":[{"base_weights":[3.4884103E-8,-6.8161076E-1,1.1608397E0,-1.1971029E0,-3.3683855E-2,-1.24322735E-1,1.6165451E0,-1.3688632E0,-7.6736593E-1,-9.0601635E-1,6.680804E-1,-7.99771E-1,7.994178E-1,1.1119093E0,2.1871655E0,-4.17805E-1,-1.3750689E-1,-7.960101E-3,-1.2738324E0,-4.1991696E-1,-5.222176E-2,-3.549163E-1,1.049834E0,-4.397996E-1,-3.4292176E-1,1.4725587E0,-2.3365352E-1,4.438437E-1,1.4765624E0,1.7800069E-1,2.263149E0,-3.2781452E-1,7.3958516E-1,-1.0331828E-1,-4.0657148E-1,3.1866017E-1,-4.01053E-1,-4.4985482E-1,1.2720774E0,-4.6285354E-2,-2.8171697E-1,3.7341204E-2,5.8023065E-1,1.7800069E-1,-2.6465935E-1,-1.6960217E-1,1.0517464E0,1.7768548E0,-1.6570476E-1,2.350748E0,1.7800069E-1,4.1624045E-1,-8.269282E-2,1.823319E-1,-2.5074056E-1,3.7341204E-2,-2.4397777E-1,4.218984E-1,2.3973979E-2,-2.4397777E-1,1.4064199E-1,1.7800069E-1,-1.502979E-1,5.3036857E-1,4.8775848E-2,1.8537156E-1,5.8284706E-1,7.358542E-1,1.7800069E-1],"categories":[],"categories_nodes":[],"categories_segments":[],"categories_sizes":[],"default_left":[0,0,0,0,0,0,0,0,0,0,0,0,0,0,0,0,0,0,0,0,0,0,0,0,0,0,0,0,0,0,0,0,0,0,0,0,0,0,0,0,0,0,0,0,0,0,0,0,0,0,0,0,0,0,0,0,0,0,0,0,0,0,0,0,0,0,0,0,0],"id":0,"left_children":[1,3,5,7,9,11,13,15,17,19,21,23,25,27,29,-1,-1,31,33,-1,35,-1,37,39,-1,41,43,45,47,-1,49,-1,51,-1,-1,-1,53,55,57,59,-1,-1,-1,-1,-1,61,63,65,-1,67,-1,-1,-1,-1,-1,-1,-1,-1,-1,-1,-1,-1,-1,-1,-1,-1,-1,-1,-1],"loss_changes":[1.1165129E2,2.9654415E1,3.0773964E1,2.6021042E0,2.5350378E1,9.744944E0,8.685829E0,1.0074997E-1,6.2999163E0,7.702037E0,1.7479004E1,6.007948E-1,4.978268E0,4.8316097E0,7.2637177E-1,0E0,0E0,6.9469385E0,2.7746582E-1,0E0,3.4569929E0,0E0,7.0975475E0,1.1322521E0,0E0,2.3550024E0,2.3964334E0,3.6773686E0,9.596836E0,0E0,9.387436E-1,0E0,3.722571E0,0E0,0E0,0E0,3.4307365E0,7.828024E-1,2.658455E0,2.1189146E0,0E0,0E0,0E0,0E0,0E0,1.6957238E0,2.8018951E0,1.2144012E0,0E0,1.2038422E0,0E0,0E0,0E0,0E0,0E0,0E0,0E0,0E0,0E0,0E0,0E0,0E0,0E0,0E0,0E0,0E0,0E0,0E0,0E0],"parents":[2147483647,0,0,1,1,2,2,3,3,4,4,5,5,6,6,7,7,8,8,9,9,10,10,11,11,12,12,13,13,14,14,17,17,18,18,20,20,22,22,23,23,25,25,26,26,27,27,28,28,30,30,32,32,36,36,37,37,38,38,39,39,45,45,46,46,47,47,49,49],"right_children":[2,4,6,8,10,12,14,16,18,20,22,24,26,28,30,-1,-1,32,34,-1,36,-1,38,40,-1,42,44,46,48,-1,50,-1,52,-1,-1,-1,54,56,58,60,-1,-1,-1,-1,-1,62,64,66,-1,68,-1,-1,-1,-1,-1,-1,-1,-1,-1,-1,-1,-1,-1,-1,-1,-1,-1,-1,-1],"split_conditions":[2.0775656E-1,-3.9256847E-1,-3.3764005E-1,-6.4365494E-1,-3.39929E-1,8.378424E-1,1.2026289E0,1.8901091E0,-5.300682E-1,4.9220275E-2,-9.000212E-1,-1.9659297E-1,3.1286496E-1,2.6965243E-1,-1.1411134E0,-4.17805E-1,-1.3750689E-1,-6.0093325E-1,-9.54231E-1,-4.1991696E-1,-2.2517748E-1,-3.549163E-1,-8.027034E-1,6.4202136E-1,-3.4292176E-1,-7.729921E-1,-9.144412E-1,-1.0151682E-1,1.0036545E0,1.7800069E-1,1.9407246E0,-3.2781452E-1,-3.5907224E-1,-1.0331828E-1,-4.0657148E-1,3.1866017E-1,5.3417104E-1,3.798685E-1,6.994584E-1,-7.222923E-1,-2.8171697E-1,3.7341204E-2,5.8023065E-1,1.7800069E-1,-2.6465935E-1,-2.2433361E-1,3.0552793E-1,-6.660314E-1,-1.6570476E-1,2.5219905E0,1.7800069E-1,4.1624045E-1,-8.269282E-2,1.823319E-1,-2.5074056E-1,3.7341204E-2,-2.4397777E-1,4.218984E-1,2.3973979E-2,-2.4397777E-1,1.4064199E-1,1.7800069E-1,-1.502979E-1,5.3036857E-1,4.8775848E-2,1.8537156E-1,5.8284706E-1,7.358542E-1,1.7800069E-1],"split_indices":[1,4,5,4,7,1,1,0,4,3,5,6,4,3,3,0,0,7,6,0,4,0,6,2,0,6,5,6,1,0,5,0,2,0,0,0,3,3,4,3,0,0,0,0,0,0,6,6,0,6,0,0,0,0,0,0,0,0,0,0,0,0,0,0,0,0,0,0,0],"split_type":[0,0,0,0,0,0,0,0,0,0,0,0,0,0,0,0,0,0,0,0,0,0,0,0,0,0,0,0,0,0,0,0,0,0,0,0,0,0,0,0,0,0,0,0,0,0,0,0,0,0,0,0,0,0,0,0,0,0,0,0,0,0,0,0,0,0,0,0,0],"sum_hessian":[1.3910912E2,8.790609E1,5.120303E1,4.8484287E1,3.9421803E1,1.3593725E1,3.7609306E1,3.3078064E1,1.5406221E1,1.744528E1,2.1976522E1,7.9296727E0,5.664052E0,2.1523397E1,1.6085907E1,3.171869E1,1.3593725E0,6.5703006E0,8.835921E0,1.0648417E1,6.7968626E0,3.3984313E0,1.857809E1,4.984366E0,2.945307E0,3.1718693E0,2.492183E0,8.382797E0,1.3140601E1,1.1328104E0,1.4953097E1,2.492183E0,4.0781174E0,1.1328104E0,7.7031107E0,1.1328104E0,5.664052E0,2.2656207E0,1.631247E1,3.3984313E0,1.5859346E0,1.1328104E0,2.0390587E0,1.1328104E0,1.3593725E0,4.5312414E0,3.8515553E0,1.15546665E1,1.5859346E0,1.3820287E1,1.1328104E0,2.2656207E0,1.8124967E0,1.5859346E0,4.0781174E0,1.1328104E0,1.1328104E0,1.4499973E1,1.8124967E0,1.1328104E0,2.2656207E0,1.1328104E0,3.3984313E0,1.5859346E0,2.2656207E0,2.0390587E0,9.515608E0,1.2687477E1,1.1328104E0],"tree_param":{"num_deleted":"0","num_feature":"8","num_nodes":"69","size_leaf_vector":"1"}},{"base_weights":[-1.8427473E-2,-5.612636E-1,7.9795605E-1,-1.0125575E0,-5.1663153E-2,-1.3704617E-1,1.0883753E0,-1.1067607E0,-3.8666365E-1,-7.375692E-1,4.2960095E-1,-7.577152E-1,5.714148E-1,7.198882E-1,1.4450166E0,-3.8984337E-1,-8.249026E-1,-2.9013115E-1,1.2952155E-1,-3.6429593E-1,-1.3160834E-2,-3.079259E-1,6.861771E-1,-4.8605572E-2,-8.9523995E-1,-1.0317778E-1,8.0373335E-1,8.5202354E-1,-2.4517752E-1,1.5429097E0,-1.8981634E-2,7.737388E-2,-9.4916224E-1,3.1035143E-1,-1.8886976E-1,2.553493E-1,-3.1138912E-1,-3.9158636E-1,8.333349E-1,-9.696785E-2,-3.2694587E-1,2.929944E-1,1.3339263E-2,2.359999E-1,1.1744385E0,7.6954013E-1,1.7089709E0,4.7879636E-2,-3.1148458E-1,1.43575E-1,-2.0727904E-1,-2.360244E-1,5.8761384E-2,4.286336E-1,1.500155E-1,3.944759E-1,-8.101396E-2,3.7424952E-1,7.4994475E-2,-1.0050279E-1,3.9006513E-1,2.1849217E-1,5.4031914E-1],"categories":[],"categories_nodes":[],"categories_segments":[],"categories_sizes":[],"default_left":[0,0,0,0,0,0,0,0,0,0,0,0,0,0,0,0,0,0,0,0,0,0,0,0,0,0,0,0,0,0,0,0,0,0,0,0,0,0,0,0,0,0,0,0,0,0,0,0,0,0,0,0,0,0,0,0,0,0,0,0,0,0,0],"id":1,"left_children":[1,3,5,7,9,11,13,15,17,19,21,23,25,27,29,-1,31,-1,33,-1,35,-1,37,-1,39,-1,41,43,-1,45,-1,-1,47,-1,-1,-1,49,51,53,-1,-1,-1,-1,55,57,59,61,-1,-1,-1,-1,-1,-1,-1,-1,-1,-1,-1,-1,-1,-1,-1,-1],"loss_changes":[6.028943E1,1.8735056E1,1.4905197E1,2.1233406E0,1.3329812E1,6.4865284E0,4.423401E0,9.418106E-1,2.281771E0,5.724868E0,9.594882E0,4.91333E-1,1.7647338E0,5.2542477E0,3.0704498E0,0E0,2.6388369E0,0E0,3.8742123E0,0E0,2.2262962E0,0E0,3.6303444E0,0E0,3.255787E-1,0E0,7.287829E-1,3.9242973E0,0E0,1.118103E0,0E0,0E0,1.7639856E0,0E0,0E0,0E0,2.246251E0,8.930125E-1,2.9865026E0,0E0,0E0,0E0,0E0,5.006426E0,6.090393E-1,3.4650126E0,2.2918701E-2,0E0,0E0,0E0,0E0,0E0,0E0,0E0,0E0,0E0,0E0,0E0,0E0,0E0,0E0,0E0,0E0],"parents":[2147483647,0,0,1,1,2,2,3,3,4,4,5,5,6,6,7,7,8,8,9,9,10,10,11,11,12,12,13,13,14,14,16,16,18,18,20,20,22,22,24,24,26,26,27,27,29,29,32,32,36,36,37,37,38,38,43,43,44,44,45,45,46,46],"right_children":[2,4,6,8,10,12,14,16,18,20,22,24,26,28,30,-1,32,-1,34,-1,36,-1,38,-1,40,-1,42,44,-1,46,-1,-1,48,-1,-1,-1,50,52,54,-1,-1,-1,-1,56,58,60,62,-1,-1,-1,-1,-1,-1,-1,-1,-1,-1,-1,-1,-1,-1,-1,-1],"split_conditions":[2.0775656E-1,-3.9256847E-1,-3.664801E-1,6.0858315E-1,-3.39929E-1,8.0468E-1,1.1031417E0,-2.8142798E-1,-8.534406E-1,4.9220275E-2,-9.000212E-1,-3.6865547E-1,-5.888314E-1,1.0036545E0,3.889851E0,-3.8984337E-1,-1.05082236E-1,-2.9013115E-1,-3.5907224E-1,-3.6429593E-1,-2.2517748E-1,-3.079259E-1,-8.027034E-1,-4.8605572E-2,-9.432813E-1,-1.0317778E-1,7.5690097E-1,2.6965243E-1,-2.4517752E-1,-2.8142798E-1,-1.8981634E-2,7.737388E-2,-1.6555705E0,3.1035143E-1,-1.8886976E-1,2.553493E-1,5.3417104E-1,-9.9634245E-2,-1.2712546E-1,-9.696785E-2,-3.2694587E-1,2.929944E-1,1.3339263E-2,-3.188075E-2,1.8594286E0,-2.770154E-1,-7.9081887E-1,4.7879636E-2,-3.1148458E-1,1.43575E-1,-2.0727904E-1,-2.360244E-1,5.8761384E-2,4.286336E-1,1.500155E-1,3.944759E-1,-8.101396E-2,3.7424952E-1,7.4994475E-2,-1.0050279E-1,3.9006513E-1,2.1849217E-1,5.4031914E-1],"split_indices":[1,4,5,6,7,1,1,3,1,3,5,4,2,1,4,0,3,0,2,0,4,0,6,0,5,0,2,3,0,3,0,0,2,0,0,0,3,4,3,0,0,0,0,4,6,2,6,0,0,0,0,0,0,0,0,0,0,0,0,0,0,0,0],"split_type":[0,0,0,0,0,0,0,0,0,0,0,0,0,0,0,0,0,0,0,0,0,0,0,0,0,0,0,0,0,0,0,0,0,0,0,0,0,0,0,0,0,0,0,0,0,0,0,0,0,0,0,0,0,0,0,0,0,0,0,0,0,0,0],"sum_hessian":[1.34033E2,8.069149E1,5.334152E1,4.227048E1,3.8421005E1,1.2766854E1,4.0574665E1,3.6072865E1,6.1976147E0,1.5622697E1,2.279831E1,6.768009E0,5.9988456E0,2.144052E1,1.9134144E1,1.9280003E1,1.6792862E1,2.5060506E0,3.6915643E0,9.014046E0,6.608651E0,2.9660568E0,1.9832253E1,1.6779542E0,5.090055E0,1.1170874E0,4.881758E0,2.0153784E1,1.2867373E0,1.7946407E1,1.1877377E0,1.617979E0,1.5174884E1,1.5184466E0,2.1731176E0,1.2196864E0,5.3889647E0,2.1830318E0,1.7649221E1,1.9674401E0,3.1226146E0,3.7430272E0,1.138731E0,7.5191884E0,1.2634594E1,4.16827E0,1.3778136E1,1.070141E0,1.4104743E1,1.6641884E0,3.7247763E0,1.1023074E0,1.0807245E0,5.154037E0,1.2495184E1,1.8903781E0,5.6288104E0,1.1385369E1,1.2492247E0,1.4723787E0,2.6958916E0,1.9475684E0,1.1830567E1],"tree_param":{"num_deleted":"0","num_feature":"8","num_nodes":"63","size_leaf_vector":"1"}},{"base_weights":[-2.2732422E-2,-4.6940023E-1,5.9966105E-1,-1.0518204E0,-1.6949615E-1,-1.1223476E-1,8.301498E-1,-1.1124151E0,-4.1835773E-1,-3.373916E-1,4.9720783E-2,-6.4512926E-1,4.1318166E-1,1.9613749E-1,9.5211583E-1,-3.5704902E-1,-3.4892753E-1,-2.4296224E-1,8.954185E-2,-4.140136E-1,4.931578E-1,-2.8483468E-1,-2.9249385E-1,2.75001E-1,-9.2498976E-4,-2.1132421E-1,3.1663007E-1,4.7717896E-1,1.1382731E0,7.509746E-2,-2.2019385E-1,-5.433842E-1,4.875429E-1,6.9955975E-1,-3.7772316E-1,1.8029825E-1,-7.293797E-1,-4.736687E-1,1.5735775E-1,-2.5442767E-1,1.4366609E-1,-1.5544972E-1,8.508762E-1,1.2044628E0,6.0949326E-2,-2.337886E-1,-8.0083355E-2,2.8676617E-1,-7.512149E-2,2.4276507E-1,-1.3945407E-1,-2.368991E-1,1.5996054E-1,-2.5907654E-1,-6.301924E-2,-2.4904269E-1,3.1913314E-2,1.702328E-1,-1.2544556E-1,4.292833E-2,-1.579521E-1,8.7057516E-2,3.6067492E-1,2.2242738E-1,4.215303E-1],"categories":[],"categories_nodes":[],"categories_segments":[],"categories_sizes":[],"default_left":[0,0,0,0,0,0,0,0,0,0,0,0,0,0,0,0,0,0,0,0,0,0,0,0,0,0,0,0,0,0,0,0,0,0,0,0,0,0,0,0,0,0,0,0,0,0,0,0,0,0,0,0,0,0,0,0,0,0,0,0,0,0,0,0,0],"id":2,"left_children":[1,3,5,7,9,11,13,15,17,-1,19,21,23,25,27,-1,29,-1,-1,31,33,-1,35,-1,37,39,-1,41,43,-1,-1,45,47,49,51,-1,53,55,-1,-1,57,59,61,63,-1,-1,-1,-1,-1,-1,-1,-1,-1,-1,-1,-1,-1,-1,-1,-1,-1,-1,-1,-1,-1],"loss_changes":[3.508988E1,1.2652252E1,8.749079E0,4.8561287E-1,1.0458104E1,4.1257415E0,2.9040241E0,8.912239E-1,1.2986035E0,0E0,8.710141E0,4.9852943E-1,1.5749842E0,2.9218326E0,2.397604E0,0E0,9.795592E-1,0E0,0E0,2.6865993E0,4.147075E0,0E0,2.3104455E0,0E0,1.5256557E0,1.492096E0,0E0,2.7535896E0,1.1896248E0,0E0,0E0,1.006947E0,1.322031E0,2.6506329E0,2.2177472E0,0E0,7.456672E-2,7.5660264E-1,0E0,0E0,1.367514E0,6.251283E-1,1.0547981E0,9.4997406E-1,0E0,0E0,0E0,0E0,0E0,0E0,0E0,0E0,0E0,0E0,0E0,0E0,0E0,0E0,0E0,0E0,0E0,0E0,0E0,0E0,0E0],"parents":[2147483647,0,0,1,1,2,2,3,3,4,4,5,5,6,6,7,7,8,8,10,10,11,11,12,12,13,13,14,14,16,16,19,19,20,20,22,22,24,24,25,25,27,27,28,28,31,31,32,32,33,33,34,34,36,36,37,37,40,40,41,41,42,42,43,43],"right_children":[2,4,6,8,10,12,14,16,18,-1,20,22,24,26,28,-1,30,-1,-1,32,34,-1,36,-1,38,40,-1,42,44,-1,-1,46,48,50,52,-1,54,56,-1,-1,58,60,62,64,-1,-1,-1,-1,-1,-1,-1,-1,-1,-1,-1,-1,-1,-1,-1,-1,-1,-1,-1,-1,-1],"split_conditions":[2.0775656E-1,-6.4365494E-1,-3.3764005E-1,9.839194E-1,-8.4234107E-1,8.0468E-1,-6.879347E-1,6.0858315E-1,-9.4256747E-1,-3.373916E-1,-1.6592616E-1,-2.2433361E-1,-7.37285E-2,1.4679282E0,-4.8776367E-1,-3.5704902E-1,-3.5907224E-1,-2.4296224E-1,8.954185E-2,1.4379429E0,1.1343625E0,-2.8483468E-1,7.772963E-2,2.75001E-1,1.3352785E0,-2.8142798E-1,3.1663007E-1,4.430838E-1,2.8874395E0,7.509746E-2,-2.2019385E-1,-3.22842E-1,1.7024615E0,1.3277268E0,9.745826E-1,1.8029825E-1,3.666692E-1,4.9220275E-2,1.5735775E-1,-2.5442767E-1,1.4968026E-1,1.4016033E0,7.715176E-1,1.5543774E-1,6.0949326E-2,-2.337886E-1,-8.0083355E-2,2.8676617E-1,-7.512149E-2,2.4276507E-1,-1.3945407E-1,-2.368991E-1,1.5996054E-1,-2.5907654E-1,-6.301924E-2,-2.4904269E-1,3.1913314E-2,1.702328E-1,-1.2544556E-1,4.292833E-2,-1.579521E-1,8.7057516E-2,3.6067492E-1,2.2242738E-1,4.215303E-1],"split_indices":[1,4,5,0,5,1,7,6,4,0,7,0,4,1,6,0,2,0,0,3,2,0,0,0,1,3,0,7,6,0,0,1,3,3,5,0,4,3,0,0,2,1,1,4,0,0,0,0,0,0,0,0,0,0,0,0,0,0,0,0,0,0,0,0,0],"split_type":[0,0,0,0,0,0,0,0,0,0,0,0,0,0,0,0,0,0,0,0,0,0,0,0,0,0,0,0,0,0,0,0,0,0,0,0,0,0,0,0,0,0,0,0,0,0,0,0,0,0,0,0,0,0,0,0,0,0,0,0,0,0,0,0,0],"sum_hessian":[1.2420867E2,7.245577E1,5.17529E1,2.3775686E1,4.8680088E1,1.2783225E1,3.8969673E1,2.1009876E1,2.76581E0,8.31609E0,4.0364E1,6.2333326E0,6.549893E0,6.707971E0,3.2261703E1,1.856091E1,2.4489665E0,1.7048576E0,1.0609525E0,1.9762875E1,2.0601124E1,2.437427E0,3.7959056E0,2.4082425E0,4.14165E0,5.061824E0,1.6461469E0,1.0087954E1,2.217375E1,1.0948914E0,1.3540752E0,1.7630268E1,2.1326075E0,1.6813084E1,3.7880406E0,1.1231948E0,2.6727107E0,2.2320457E0,1.9096048E0,1.3146313E0,3.7471926E0,3.9630184E0,6.1249356E0,2.0438976E1,1.7347729E0,8.5309725E0,9.099295E0,1.1239514E0,1.008656E0,1.5644787E1,1.1682963E0,2.70011E0,1.0879308E0,1.5970443E0,1.0756663E0,1.1153997E0,1.1166458E0,2.1303034E0,1.6168894E0,2.5365381E0,1.4264803E0,3.0630782E0,3.0618572E0,7.5984364E0,1.284054E1],"tree_param":{"num_deleted":"0","num_feature":"8","num_nodes":"65","size_leaf_vector":"1"}},{"base_weights":[-2.6894799E-2,-6.0142404E-1,2.9511064E-1,-7.977231E-1,1.7762125E-1,6.176711E-2,8.6043906E-1,-9.4129753E-1,-1.4594906E-2,-2.711232E-1,5.8268183E-1,-6.446589E-1,2.5316352E-1,9.314414E-1,-7.664267E-2,-1.0306422E0,-5.374872E-2,-7.5112355E-1,7.761067E-1,1.007664E0,-2.0270953E-1,-7.8091365E-1,8.606603E-2,5.5601705E-2,7.995483E-1,1.0076599E0,-5.340327E-2,-1.1001595E0,-5.1169795E-1,-2.1001749E-1,1.8302548E-1,-2.6007858E-1,-7.2871834E-2,2.7961787E-2,3.084272E-1,-8.617354E-2,4.3141565E-1,-3.1593263E-1,-3.511668E-1,-1.400871E-1,8.830689E-1,-2.8061967E-2,9.953358E-1,2.6565082E-2,1.073876E0,-1.1773122E-1,-3.401996E-1,8.488305E-2,-2.4025114E-1,7.140315E-2,-2.6027855E-1,1.3193E-1,-1.1189712E-1,-5.2115224E-2,3.459401E-1,3.942285E-1,5.5149604E-2,3.4304878E-1,3.4558766E-2],"categories":[],"categories_nodes":[],"categories_segments":[],"categories_sizes":[],"default_left":[0,0,0,0,0,0,0,0,0,0,0,0,0,0,0,0,0,0,0,0,0,0,0,0,0,0,0,0,0,0,0,0,0,0,0,0,0,0,0,0,0,0,0,0,0,0,0,0,0,0,0,0,0,0,0,0,0,0,0],"id":3,"left_children":[1,3,5,7,9,11,13,15,17,-1,19,21,23,25,-1,27,29,31,33,35,-1,37,-1,39,41,43,-1,45,47,-1,-1,-1,-1,-1,-1,-1,-1,-1,49,51,53,-1,55,-1,57,-1,-1,-1,-1,-1,-1,-1,-1,-1,-1,-1,-1,-1,-1],"loss_changes":[2.160767E1,6.55453E0,9.827816E0,3.772766E0,4.581611E0,7.4774866E0,1.9657707E0,2.2000961E0,4.2130575E0,0E0,4.6077642E0,1.7235856E0,4.6276655E0,1.9312668E0,0E0,3.6733246E-1,1.9958397E0,9.259701E-3,5.0609684E-1,3.695919E0,0E0,8.6723757E-1,0E0,5.445114E0,2.0898366E0,1.0938625E0,0E0,7.8762054E-2,1.3560718E0,0E0,0E0,0E0,0E0,0E0,0E0,0E0,0E0,0E0,1.910743E0,3.8699126E0,2.033256E0,0E0,2.2034054E0,0E0,1.0785408E0,0E0,0E0,0E0,0E0,0E0,0E0,0E0,0E0,0E0,0E0,0E0,0E0,0E0,0E0],"parents":[2147483647,0,0,1,1,2,2,3,3,4,4,5,5,6,6,7,7,8,8,10,10,11,11,12,12,13,13,15,15,16,16,17,17,18,18,19,19,21,21,23,23,24,24,25,25,27,27,28,28,38,38,39,39,40,40,42,42,44,44],"right_children":[2,4,6,8,10,12,14,16,18,-1,20,22,24,26,-1,28,30,32,34,36,-1,38,-1,40,42,44,-1,46,48,-1,-1,-1,-1,-1,-1,-1,-1,-1,50,52,54,-1,56,-1,58,-1,-1,-1,-1,-1,-1,-1,-1,-1,-1,-1,-1,-1,-1],"split_conditions":[-3.22842E-1,9.839194E-1,1.1031417E0,-9.9634245E-2,-6.868293E-1,-5.2390337E-1,2.4441166E0,1.3277268E0,5.1212028E-2,-2.711232E-1,1.2260966E0,1.8594286E0,7.910895E-1,3.889851E0,-7.664267E-2,6.2046766E-1,-5.8387244E-1,-3.7703443E-2,5.300852E-1,-8.86603E-1,-2.0270953E-1,-3.39929E-1,8.606603E-2,1.2197231E0,-6.116206E-1,-1.2954159E0,-5.340327E-2,-1.6555705E0,-7.731837E-1,-2.1001749E-1,1.8302548E-1,-2.6007858E-1,-7.2871834E-2,2.7961787E-2,3.084272E-1,-8.617354E-2,4.3141565E-1,-3.1593263E-1,-5.9750043E-3,-3.5907224E-1,6.0030067E-1,-2.8061967E-2,7.0060205E-1,2.6565082E-2,1.8901091E0,-1.1773122E-1,-3.401996E-1,8.488305E-2,-2.4025114E-1,7.140315E-2,-2.6027855E-1,1.3193E-1,-1.1189712E-1,-5.2115224E-2,3.459401E-1,3.942285E-1,5.5149604E-2,3.4304878E-1,3.4558766E-2],"split_indices":[1,0,1,4,6,3,7,3,2,0,7,6,7,4,0,6,4,5,7,1,0,7,0,5,5,3,0,2,4,0,0,0,0,0,0,0,0,0,4,2,3,0,5,0,0,0,0,0,0,0,0,0,0,0,0,0,0,0,0],"split_type":[0,0,0,0,0,0,0,0,0,0,0,0,0,0,0,0,0,0,0,0,0,0,0,0,0,0,0,0,0,0,0,0,0,0,0,0,0,0,0,0,0,0,0,0,0,0,0,0,0,0,0,0,0,0,0,0,0,0,0],"sum_hessian":[1.1483786E2,4.0934277E1,7.390359E1,3.267664E1,8.257637E0,5.309676E1,2.0806826E1,2.7443356E1,5.2332854E0,1.9147677E0,6.3428693E0,1.08142395E1,4.228252E1,1.9717567E1,1.0892596E0,2.4786966E1,2.6563895E0,2.7353735E0,2.4979117E0,4.8904843E0,1.4523848E0,9.575376E0,1.2388638E0,3.1863192E1,1.041933E1,1.8535915E1,1.1816514E0,2.0871096E1,3.9158704E0,1.3183109E0,1.3380786E0,1.6529111E0,1.0824624E0,1.0425067E0,1.455405E0,1.3029342E0,3.5875502E0,4.9742384E0,4.601137E0,2.644086E1,5.42233E0,1.9673705E0,8.451959E0,1.4027272E0,1.7133188E1,1.5272301E0,1.9343864E1,1.0504222E0,2.8654482E0,2.4010148E0,2.2001224E0,7.322361E0,1.91185E1,1.1762639E0,4.246066E0,5.6236525E0,2.8283064E0,1.5793475E1,1.3397127E0],"tree_param":{"num_deleted":"0","num_feature":"8","num_nodes":"59","size_leaf_vector":"1"}},{"base_weights":[-2.8276537E-2,-6.068979E-1,1.9350526E-1,-3.1569412E-1,-3.0985093E-1,5.5680368E-2,8.771873E-1,-8.6436206E-1,-2.6549448E-3,-4.8951423E-1,2.1285936E-1,9.504838E-1,2.3371268E-2,-2.900825E-1,-4.4555254E-2,6.16673E-1,-2.3666868E-1,-8.699298E-1,-5.170439E-2,-1.8187518E-1,3.9955252E-1,1.3210653E-2,1.04893E0,2.5603053E-1,1.2949474E-2,-6.574176E-1,8.63206E-2,-3.3431116E-1,-3.1640947E-1,1.8785809E-1,-2.5174868E-1,3.8056E-2,-8.5537106E-1,2.5773966E-1,9.374638E-1,9.5941596E-2,1.125761E0,-2.9873034E-1,5.0789732E-2,-1.9084117E-1,1.3674113E-1,-1.952829E-1,4.356769E-2,1.5082055E-1,-1.6133785E-1,-1.0131824E-1,2.5548068E-1,-6.8309784E-2,-2.975592E-1,-2.6861047E-2,1.6524853E-1,3.5113898E-1,5.5135358E-2,3.581196E-1,1.1149717E-1],"categories":[],"categories_nodes":[],"categories_segments":[],"categories_sizes":[],"default_left":[0,0,0,0,0,0,0,0,0,0,0,0,0,0,0,0,0,0,0,0,0,0,0,0,0,0,0,0,0,0,0,0,0,0,0,0,0,0,0,0,0,0,0,0,0,0,0,0,0,0,0,0,0,0,0],"id":4,"left_children":[1,3,5,-1,7,9,11,13,15,17,19,21,-1,-1,-1,23,25,27,29,31,33,-1,35,-1,-1,37,39,41,-1,-1,43,45,47,49,51,-1,53,-1,-1,-1,-1,-1,-1,-1,-1,-1,-1,-1,-1,-1,-1,-1,-1,-1,-1],"loss_changes":[1.3876856E1,3.6367865E0,7.3263774E0,0E0,3.2999258E0,5.7776E0,6.912775E-1,3.6364317E-1,2.0993023E0,2.4730544E0,3.911196E0,1.0136671E0,0E0,0E0,0E0,5.026883E-1,1.4842713E0,4.4174576E-1,1.2550433E0,2.6116805E0,2.4797735E0,0E0,2.3767948E-1,0E0,0E0,1.4770837E0,2.1121955E0,6.2941456E-1,0E0,0E0,1.772813E0,4.5930986E0,1.4501882E-1,3.0632403E0,1.0253415E0,0E0,3.0760765E-2,0E0,0E0,0E0,0E0,0E0,0E0,0E0,0E0,0E0,0E0,0E0,0E0,0E0,0E0,0E0,0E0,0E0,0E0],"parents":[2147483647,0,0,1,1,2,2,4,4,5,5,6,6,7,7,8,8,9,9,10,10,11,11,15,15,16,16,17,17,18,18,19,19,20,20,22,22,25,25,26,26,27,27,30,30,31,31,32,32,33,33,34,34,36,36],"right_children":[2,4,6,-1,8,10,12,14,16,18,20,22,-1,-1,-1,24,26,28,30,32,34,-1,36,-1,-1,38,40,42,-1,-1,44,46,48,50,52,-1,54,-1,-1,-1,-1,-1,-1,-1,-1,-1,-1,-1,-1,-1,-1,-1,-1,-1,-1],"split_conditions":[-4.8865408E-1,-7.7119094E-1,1.5010906E0,-3.1569412E-1,-6.0093325E-1,-6.879347E-1,2.8874395E0,4.1843086E-1,-5.300682E-1,-1.7121188E-1,-3.2322E-1,-2.1122824E-1,2.3371268E-2,-2.900825E-1,-4.4555254E-2,1.09380856E-1,-5.41244E-1,-7.0371103E-1,9.3306705E-2,1.8351065E0,7.9873544E-1,1.3210653E-2,-8.8560116E-1,2.5603053E-1,1.2949474E-2,7.5690097E-1,-2.7898175E-1,-3.3623606E-1,-3.1640947E-1,1.8785809E-1,-9.4893897E-1,7.0408803E-1,3.7979287E-1,1.8207952E-1,1.3277268E0,9.5941596E-2,1.5880458E0,-2.9873034E-1,5.0789732E-2,-1.9084117E-1,1.3674113E-1,-1.952829E-1,4.356769E-2,1.5082055E-1,-1.6133785E-1,-1.0131824E-1,2.5548068E-1,-6.8309784E-2,-2.975592E-1,-2.6861047E-2,1.6524853E-1,3.5113898E-1,5.5135358E-2,3.581196E-1,1.1149717E-1],"split_indices":[1,4,1,0,7,7,6,6,4,3,5,4,0,0,0,5,6,2,3,7,6,0,5,0,0,2,4,6,0,0,7,7,0,7,3,0,0,0,0,0,0,0,0,0,0,0,0,0,0,0,0,0,0,0,0],"split_type":[0,0,0,0,0,0,0,0,0,0,0,0,0,0,0,0,0,0,0,0,0,0,0,0,0,0,0,0,0,0,0,0,0,0,0,0,0,0,0,0,0,0,0,0,0,0,0,0,0,0,0,0,0,0,0],"sum_hessian":[1.0622096E2,2.895136E1,7.72696E1,1.0565711E1,1.838565E1,6.5206024E1,1.2063577E1,5.907845E0,1.2477805E1,1.4118814E1,5.108721E1,1.0876959E1,1.1866183E0,4.860562E0,1.0472827E0,2.973391E0,9.504415E0,7.026469E0,7.092345E0,1.6412102E1,3.467511E1,1.2073679E0,9.669591E0,1.7590883E0,1.2143027E0,3.677901E0,5.8265133E0,2.52274E0,4.5037293E0,1.1306368E0,5.9617085E0,1.3083242E1,3.3288593E0,2.861129E1,6.063821E0,1.413925E0,8.255666E0,2.464692E0,1.213209E0,1.727332E0,4.099181E0,1.3041713E0,1.2185686E0,1.43064E0,4.531069E0,9.349503E0,3.7337399E0,1.0711797E0,2.2576795E0,1.341297E1,1.5198319E1,4.209468E0,1.8543531E0,7.03829E0,1.2173755E0],"tree_param":{"num_deleted":"0","num_feature":"8","num_nodes":"55","size_leaf_vector":"1"}},{"base_weights":[-2.6765728E-2,-5.319921E-1,1.5235208E-1,-2.9753307E-1,-2.658292E-1,3.900189E-2,7.533375E-1,-7.861234E-1,-1.0445316E-2,-4.8864156E-1,1.5118378E-1,3.1780908E-1,9.475533E-1,-2.6900086E-1,-3.8360324E-2,1.8088843E-1,-1.7930587E-1,-6.577196E-1,9.6417196E-2,-7.660828E-2,3.2402763E-1,-6.0989678E-2,2.366227E-1,3.284318E-1,1.12557404E-1,-3.6948788E-1,3.3922973E-1,-8.212242E-1,1.14136554E-1,1.8669945E-1,-3.4866688E-1,-2.5795016E-1,4.5636687E-1,-1.6117871E-1,9.323102E-2,7.700929E-2,-1.8946545E-1,1.9207917E-1,-5.2513067E-2,-1.8485582E-2,-2.9468402E-1,-5.913049E-2,2.2268453E-1,-2.94098E-1,-1.4756498E-2,-1.4002293E-1,1.2577343E-1,2.7157608E-1,8.4380396E-2],"categories":[],"categories_nodes":[],"categories_segments":[],"categories_sizes":[],"default_left":[0,0,0,0,0,0,0,0,0,0,0,0,0,0,0,0,0,0,0,0,0,0,0,0,0,0,0,0,0,0,0,0,0,0,0,0,0,0,0,0,0,0,0,0,0,0,0,0,0],"id":5,"left_children":[1,3,5,-1,7,9,11,13,15,17,19,21,23,-1,-1,-1,25,27,-1,29,31,33,-1,-1,-1,35,37,39,-1,41,43,45,47,-1,-1,-1,-1,-1,-1,-1,-1,-1,-1,-1,-1,-1,-1,-1,-1],"loss_changes":[9.102309E0,2.9566722E0,5.0370636E0,0E0,2.3878837E0,3.8400521E0,6.924877E-1,3.1639242E-1,1.4659588E0,1.7716241E0,2.1207912E0,9.627865E-1,2.3128557E-1,0E0,0E0,0E0,1.2150655E0,1.9679823E0,0E0,1.7682467E0,2.4636276E0,8.344654E-1,0E0,0E0,0E0,1.567398E0,6.51851E-1,1.0090351E0,0E0,2.8614566E0,2.2297654E0,1.0839041E0,1.7242894E0,0E0,0E0,0E0,0E0,0E0,0E0,0E0,0E0,0E0,0E0,0E0,0E0,0E0,0E0,0E0,0E0],"parents":[2147483647,0,0,1,1,2,2,4,4,5,5,6,6,7,7,8,8,9,9,10,10,11,11,12,12,16,16,17,17,19,19,20,20,21,21,25,25,26,26,27,27,29,29,30,30,31,31,32,32],"right_children":[2,4,6,-1,8,10,12,14,16,18,20,22,24,-1,-1,-1,26,28,-1,30,32,34,-1,-1,-1,36,38,40,-1,42,44,46,48,-1,-1,-1,-1,-1,-1,-1,-1,-1,-1,-1,-1,-1,-1,-1,-1],"split_conditions":[-4.8865408E-1,-7.7119094E-1,1.5010906E0,-2.9753307E-1,-6.0093325E-1,-6.3411945E-1,-1.4572442E-1,4.1843086E-1,-5.8387244E-1,7.3835516E-1,-1.6592616E-1,4.430838E-1,9.650923E-1,-2.6900086E-1,-3.8360324E-2,1.8088843E-1,8.448024E-1,1.2562894E0,9.6417196E-2,1.4968026E-1,-6.4046067E-1,-4.105143E-1,2.366227E-1,3.284318E-1,1.12557404E-1,-1.7121188E-1,1.9891436E-1,-1.6260642E0,1.14136554E-1,2.4091898E-1,1.15349926E-1,1.3320242E-1,7.772963E-2,-1.6117871E-1,9.323102E-2,7.700929E-2,-1.8946545E-1,1.9207917E-1,-5.2513067E-2,-1.8485582E-2,-2.9468402E-1,-5.913049E-2,2.2268453E-1,-2.94098E-1,-1.4756498E-2,-1.4002293E-1,1.2577343E-1,2.7157608E-1,8.4380396E-2],"split_indices":[1,4,1,0,7,3,2,6,4,1,7,7,7,0,0,0,5,6,0,2,5,6,0,0,0,3,2,3,0,1,3,6,0,0,0,0,0,0,0,0,0,0,0,0,0,0,0,0,0],"split_type":[0,0,0,0,0,0,0,0,0,0,0,0,0,0,0,0,0,0,0,0,0,0,0,0,0,0,0,0,0,0,0,0,0,0,0,0,0,0,0,0,0,0,0,0,0,0,0,0,0],"sum_hessian":[9.868789E1,2.5314579E1,7.3373314E1,8.281847E0,1.7032732E1,6.2626415E1,1.0746897E1,4.923622E0,1.2109111E1,1.039204E1,5.2234375E1,4.127456E0,6.61944E0,3.9055433E0,1.0180788E0,2.0589511E0,1.0050159E1,8.753048E0,1.6389916E0,2.2775354E1,2.9459019E1,2.769932E0,1.3575242E0,4.5391755E0,2.0802648E0,7.5635386E0,2.4866207E0,7.742618E0,1.0104301E0,1.1733257E1,1.1042098E1,5.2819314E0,2.4177088E1,1.01912E0,1.750812E0,2.2375412E0,5.3259974E0,1.4139599E0,1.0726607E0,1.5963174E0,6.146301E0,7.321048E0,4.412209E0,2.8202295E0,8.2218685E0,4.2747188E0,1.0072129E0,5.6142755E0,1.8562813E1],"tree_param":{"num_deleted":"0","num_feature":"8","num_nodes":"49","size_leaf_vector":"1"}},{"base_weights":[-2.1527855E-2,-6.2754154E-1,8.6392894E-2,-7.528687E-1,6.706479E-2,-3.4049735E-3,7.00704E-1,-8.3909154E-1,-5.4016903E-2,-9.026044E-2,5.224961E-1,8.028496E-1,-2.6506636E-2,-2.915775E-1,-3.408313E-2,-5.244383E-1,1.8845236E-2,-1.02532515E-2,8.8187075E-1,2.3758568E-2,8.912725E-1,-8.7487835E-1,-1.1487455E-1,2.1777432E-1,-2.7344012E-1,2.6343504E-1,-1.3835281E-1,3.194533E-2,1.0653814E0,3.094275E-1,3.2535413E-1,-5.8273222E-2,-2.916427E-1,1.1715753E-1,-2.0050628E-1,1.4315043E-1,-2.87729E-3,-1.3812318E-2,-2.4936557E-1,-5.1752392E-2,1.9942196E-1,3.6011085E-1,8.676783E-2,1.9292529E-1,-4.6848346E-2],"categories":[],"categories_nodes":[],"categories_segments":[],"categories_sizes":[],"default_left":[0,0,0,0,0,0,0,0,0,0,0,0,0,0,0,0,0,0,0,0,0,0,0,0,0,0,0,0,0,0,0,0,0,0,0,0,0,0,0,0,0,0,0,0,0],"id":6,"left_children":[1,3,5,7,-1,9,11,13,-1,15,17,19,-1,-1,-1,21,23,25,27,-1,29,31,33,35,37,39,-1,-1,41,-1,43,-1,-1,-1,-1,-1,-1,-1,-1,-1,-1,-1,-1,-1,-1],"loss_changes":[6.1640663E0,1.68751E0,4.4253073E0,4.7337914E-1,0E0,3.2878652E0,8.95484E-1,9.222827E-1,0E0,2.9347687E0,1.9626296E0,5.1533985E-1,0E0,0E0,0E0,1.6841896E0,2.9847395E0,7.5075847E-1,7.5522995E-1,0E0,3.0388165E-1,2.4476862E-1,2.1868634E0,1.8029104E0,2.6021647E0,7.811265E-1,0E0,0E0,1.5839958E-1,0E0,5.6875294E-1,0E0,0E0,0E0,0E0,0E0,0E0,0E0,0E0,0E0,0E0,0E0,0E0,0E0,0E0],"parents":[2147483647,0,0,1,1,2,2,3,3,5,5,6,6,7,7,9,9,10,10,11,11,15,15,16,16,17,17,18,18,20,20,21,21,22,22,23,23,24,24,25,25,28,28,30,30],"right_children":[2,4,6,8,-1,10,12,14,-1,16,18,20,-1,-1,-1,22,24,26,28,-1,30,32,34,36,38,40,-1,-1,42,-1,44,-1,-1,-1,-1,-1,-1,-1,-1,-1,-1,-1,-1,-1,-1],"split_conditions":[-6.4365494E-1,1.7459415E-1,1.5010906E0,9.839194E-1,6.706479E-2,1.2197231E0,2.236762E0,6.0858315E-1,-5.4016903E-2,-6.879347E-1,-4.2693043E-1,-1.2954159E0,-2.6506636E-2,-2.915775E-1,-3.408313E-2,-1.7121188E-1,4.1226217E-1,1.0036545E0,-1.5941675E-1,2.3758568E-2,1.2859826E0,-1.1632293E0,7.1051675E-1,-1.41482E-1,6.285019E-1,7.510692E-2,-1.3835281E-1,3.194533E-2,6.720303E-1,3.094275E-1,6.0030067E-1,-5.8273222E-2,-2.916427E-1,1.1715753E-1,-2.0050628E-1,1.4315043E-1,-2.87729E-3,-1.3812318E-2,-2.4936557E-1,-5.1752392E-2,1.9942196E-1,3.6011085E-1,8.676783E-2,1.9292529E-1,-4.6848346E-2],"split_indices":[4,1,1,0,0,5,6,6,0,7,7,3,0,0,0,3,2,1,4,0,0,2,3,4,5,1,0,0,1,0,3,0,0,0,0,0,0,0,0,0,0,0,0,0,0],"split_type":[0,0,0,0,0,0,0,0,0,0,0,0,0,0,0,0,0,0,0,0,0,0,0,0,0,0,0,0,0,0,0,0,0,0,0,0,0,0,0,0,0,0,0,0,0],"sum_hessian":[9.242074E1,1.32428055E1,7.917793E1,1.1643632E1,1.5991737E0,6.9947685E1,9.230252E0,9.716229E0,1.9274023E0,6.074387E1,9.2038145E0,8.156852E0,1.0734006E0,7.9254136E0,1.7908161E0,1.1434485E1,4.9309383E1,4.098913E0,5.1049013E0,1.0945642E0,7.062288E0,5.549757E0,5.8847284E0,2.949205E1,1.9817331E1,2.809481E0,1.2894324E0,1.2793856E0,3.8255157E0,5.0011578E0,2.06113E0,1.0686481E0,4.481109E0,3.2298605E0,2.6548681E0,1.3262548E1,1.6229504E1,1.4846961E1,4.9703703E0,1.6198968E0,1.1895843E0,2.7931721E0,1.0323436E0,1.0396013E0,1.0215287E0],"tree_param":{"num_deleted":"0","num_feature":"8","num_nodes":"45","size_leaf_vector":"1"}},{"base_weights":[-1.7308893E-2,-3.831599E-1,1.292573E-1,-8.191969E-1,-9.1941826E-2,-4.509536E-2,3.8884425E-1,-3.0470477E-2,-8.891657E-1,-2.4739599E-1,6.407368E-2,-2.129062E-1,4.7404322E-1,1.0412066E0,2.3488218E-1,-2.898158E-1,-1.0104193E-1,-2.8545666E-1,3.2698518E-1,-6.295297E-2,-1.0752611E0,9.003076E-1,1.5536107E-1,7.717174E-2,3.7181813E-1,4.0443495E-2,2.9700878E-1,-5.2476406E-1,1.3386917E-1,5.5334795E-1,-2.0927143E-1,-2.8770736E-1,3.5746825E-1,-3.753834E-1,-7.3734276E-2,3.4263483E-1,6.8782926E-2,-2.852575E-1,2.7921098E-1,-4.4468388E-1,1.7548345E-1,6.678528E-2,-2.3139615E-1,2.9302067E-1,6.420685E-2,5.866175E-2,-1.781109E-1,1.7511833E-1,-1.03629015E-1,-2.0347835E-1,1.1390249E-1,1.549097E-1,-3.37957E-1,-1.7823279E-1,8.7681524E-2],"categories":[],"categories_nodes":[],"categories_segments":[],"categories_sizes":[],"default_left":[0,0,0,0,0,0,0,0,0,0,0,0,0,0,0,0,0,0,0,0,0,0,0,0,0,0,0,0,0,0,0,0,0,0,0,0,0,0,0,0,0,0,0,0,0,0,0,0,0,0,0,0,0,0,0],"id":7,"left_children":[1,3,5,7,9,11,13,-1,15,-1,17,19,21,23,25,-1,-1,27,29,31,33,35,37,-1,-1,39,-1,41,-1,43,-1,45,47,-1,-1,-1,-1,49,-1,51,53,-1,-1,-1,-1,-1,-1,-1,-1,-1,-1,-1,-1,-1,-1],"loss_changes":[4.8400817E0,3.2015991E0,2.9383316E0,4.222126E-1,1.9503337E0,3.5421443E0,2.3701818E0,0E0,6.4135075E-2,0E0,1.4362001E0,3.8817391E0,1.2130425E0,4.0825033E-1,3.2421312E0,0E0,0E0,1.4260566E0,2.428279E0,2.6616485E0,3.4391546E-1,3.9562225E-1,2.625269E0,0E0,0E0,1.310898E0,0E0,1.2015905E0,0E0,9.072504E-1,0E0,2.8073852E0,1.7728412E0,0E0,0E0,0E0,0E0,1.6085031E0,0E0,3.4523268E0,1.5612227E0,0E0,0E0,0E0,0E0,0E0,0E0,0E0,0E0,0E0,0E0,0E0,0E0,0E0,0E0],"parents":[2147483647,0,0,1,1,2,2,3,3,4,4,5,5,6,6,8,8,10,10,11,11,12,12,13,13,14,14,17,17,18,18,19,19,20,20,21,21,22,22,25,25,27,27,29,29,31,31,32,32,37,37,39,39,40,40],"right_children":[2,4,6,8,10,12,14,-1,16,-1,18,20,22,24,26,-1,-1,28,30,32,34,36,38,-1,-1,40,-1,42,-1,44,-1,46,48,-1,-1,-1,-1,50,-1,52,54,-1,-1,-1,-1,-1,-1,-1,-1,-1,-1,-1,-1,-1,-1],"split_conditions":[-3.8090014E-1,-4.2693043E-1,9.754886E-2,-1.0222775E0,-1.289362E0,6.197485E-1,2.60961E-1,-3.0470477E-2,5.3938067E-1,-2.4739599E-1,4.1944508E-2,3.6866197E-1,8.6485666E-1,-5.139319E-1,1.5880458E0,-2.898158E-1,-1.0104193E-1,2.6965243E-1,2.4441166E0,-9.9634245E-2,8.710048E-1,5.300852E-1,1.8207952E-1,7.717174E-2,3.7181813E-1,-2.8142798E-1,2.9700878E-1,-5.888314E-1,1.3386917E-1,-3.6960083E-1,-2.0927143E-1,1.09380856E-1,-2.5007328E-1,-3.753834E-1,-7.3734276E-2,3.4263483E-1,6.8782926E-2,-5.115327E-1,2.7921098E-1,-7.222923E-1,4.035752E-1,6.678528E-2,-2.3139615E-1,2.9302067E-1,6.420685E-2,5.866175E-2,-1.781109E-1,1.7511833E-1,-1.03629015E-1,-2.0347835E-1,1.1390249E-1,1.549097E-1,-3.37957E-1,-1.7823279E-1,8.7681524E-2],"split_indices":[5,7,6,4,5,4,6,0,1,0,1,4,4,7,0,0,0,3,7,4,1,7,7,0,0,3,0,2,0,3,0,5,6,0,0,0,0,6,0,3,6,0,0,0,0,0,0,0,0,0,0,0,0,0,0],"split_type":[0,0,0,0,0,0,0,0,0,0,0,0,0,0,0,0,0,0,0,0,0,0,0,0,0,0,0,0,0,0,0,0,0,0,0,0,0,0,0,0,0,0,0,0,0,0,0,0,0,0,0,0,0,0,0],"sum_hessian":[8.834038E1,2.4806192E1,6.3534187E1,9.20727E0,1.5598923E1,3.8501064E1,2.5033123E1,1.0357567E0,8.171513E0,1.9860274E0,1.3612896E1,2.9541653E1,8.959414E0,3.6795454E0,2.1353577E1,6.5156007E0,1.655912E0,5.806987E0,7.8059087E0,2.6079704E1,3.4619486E0,3.0520039E0,5.907409E0,1.2061898E0,2.4733558E0,1.7819014E1,3.5345633E0,4.588925E0,1.218062E0,6.770064E0,1.0358449E0,1.720024E1,8.879464E0,2.4364266E0,1.0255219E0,1.727472E0,1.3245319E0,4.169829E0,1.7375804E0,3.3807569E0,1.4438257E1,1.1624141E0,3.4265108E0,2.1762354E0,4.5938287E0,6.8086257E0,1.0391614E1,6.8454804E0,2.0339842E0,2.6082158E0,1.561613E0,1.5038184E0,1.8769383E0,1.3638583E0,1.3074399E1],"tree_param":{"num_deleted":"0","num_feature":"8","num_nodes":"55","size_leaf_vector":"1"}},{"base_weights":[-1.5606983E-2,-3.875806E-1,1.0149552E-1,-2.645331E-1,-1.8063396E-1,6.776888E-4,4.2738062E-1,-4.0672877E-1,2.1151198E-1,5.5568907E-2,-7.224666E-1,5.312021E-1,-2.2750136E-2,-5.327144E-1,1.0067807E-1,4.5366564E-1,-1.3976999E-1,-4.283575E-1,1.6521175E-1,-2.6180923E-1,-6.622436E-2,9.969296E-2,7.735033E-1,8.021792E-2,-1.259085E-1,-6.760614E-1,5.383847E-2,-8.616281E-2,7.492734E-1,5.6042843E-2,-5.3590345E-1,5.00391E-1,5.0244283E-2,4.4878364E-1,-1.1606125E-1,3.0590478E-1,9.3015596E-2,-3.8417205E-2,-2.713968E-1,2.959762E-1,2.517857E-2,-2.0128374E-1,5.037765E-2,-4.4406425E-2,2.227646E-1,-4.6224963E-2,1.20800845E-1,1.6150996E-2,2.2251086E-1,-7.187072E-2,1.09773435E-1],"categories":[],"categories_nodes":[],"categories_segments":[],"categories_sizes":[],"default_left":[0,0,0,0,0,0,0,0,0,0,0,0,0,0,0,0,0,0,0,0,0,0,0,0,0,0,0,0,0,0,0,0,0,0,0,0,0,0,0,0,0,0,0,0,0,0,0,0,0,0,0],"id":8,"left_children":[1,3,5,-1,7,9,11,13,15,17,19,21,23,25,-1,27,-1,29,31,-1,-1,33,35,-1,-1,37,-1,-1,39,-1,41,43,45,47,-1,-1,49,-1,-1,-1,-1,-1,-1,-1,-1,-1,-1,-1,-1,-1,-1],"loss_changes":[3.7290852E0,1.9362185E0,2.1424305E0,0E0,1.4779758E0,2.0570114E0,7.321243E-1,1.1420686E0,1.261086E0,2.6257682E0,8.292866E-2,1.2361896E0,5.5523807E-1,1.0597408E0,0E0,1.3585925E0,0E0,7.0699966E-1,1.5155008E0,0E0,0E0,1.1358186E0,1.2279124E0,0E0,0E0,8.690002E-1,0E0,0E0,5.50184E-1,0E0,8.793769E-1,1.6957068E0,2.2858047E0,3.9520758E-1,0E0,0E0,3.7791878E-1,0E0,0E0,0E0,0E0,0E0,0E0,0E0,0E0,0E0,0E0,0E0,0E0,0E0,0E0],"parents":[2147483647,0,0,1,1,2,2,4,4,5,5,6,6,7,7,8,8,9,9,10,10,11,11,12,12,13,13,15,15,17,17,18,18,21,21,22,22,25,25,28,28,30,30,31,31,32,32,33,33,36,36],"right_children":[2,4,6,-1,8,10,12,14,16,18,20,22,24,26,-1,28,-1,30,32,-1,-1,34,36,-1,-1,38,-1,-1,40,-1,42,44,46,48,-1,-1,50,-1,-1,-1,-1,-1,-1,-1,-1,-1,-1,-1,-1,-1,-1],"split_conditions":[-4.8865408E-1,-7.7119094E-1,1.1031417E0,-2.645331E-1,6.818561E-1,9.373296E-1,2.2159412E0,1.4379429E0,1.2260966E0,-5.90033E-1,6.4202136E-1,-4.8776367E-1,4.4517103E-1,7.0408803E-1,1.0067807E-1,-7.8487664E-1,-1.3976999E-1,-7.134012E-1,-3.4266087E-1,-2.6180923E-1,-6.622436E-2,-6.719737E-1,9.650923E-1,8.021792E-2,-1.259085E-1,-8.534406E-1,5.383847E-2,-8.616281E-2,4.1226217E-1,5.6042843E-2,1.8594286E0,-2.7995995E-1,1.6885597E-1,4.4040096E-1,-1.1606125E-1,3.0590478E-1,9.839194E-1,-3.8417205E-2,-2.713968E-1,2.959762E-1,2.517857E-2,-2.0128374E-1,5.037765E-2,-4.4406425E-2,2.227646E-1,-4.6224963E-2,1.20800845E-1,1.6150996E-2,2.2251086E-1,-7.187072E-2,1.09773435E-1],"split_indices":[1,4,1,0,0,1,4,3,7,3,2,6,6,7,0,6,0,4,2,0,0,6,7,0,0,1,0,0,2,0,6,5,6,4,0,0,0,0,0,0,0,0,0,0,0,0,0,0,0,0,0],"split_type":[0,0,0,0,0,0,0,0,0,0,0,0,0,0,0,0,0,0,0,0,0,0,0,0,0,0,0,0,0,0,0,0,0,0,0,0,0,0,0,0,0,0,0,0,0,0,0,0,0,0,0],"sum_hessian":[8.370682E1,1.9489399E1,6.4217415E1,4.7899437E0,1.4699455E1,4.9809975E1,1.4407442E1,9.300178E0,5.3992777E0,4.7153854E1,2.6561189E0,1.1560856E1,2.8465862E0,8.192182E0,1.1079953E0,4.220777E0,1.1785005E0,8.173213E0,3.898064E1,1.4750313E0,1.1810876E0,4.6648197E0,6.896036E0,1.8330833E0,1.0135031E0,6.8617563E0,1.3304257E0,1.2118802E0,3.0088968E0,1.1065695E0,7.066643E0,9.099438E0,2.9881203E1,2.7613237E0,1.903496E0,4.697991E0,2.1980453E0,2.4790306E0,4.3827257E0,1.8619571E0,1.1469396E0,5.968247E0,1.0983962E0,2.5799592E0,6.5194783E0,1.927109E1,1.0610114E1,1.6799788E0,1.0813448E0,1.0457219E0,1.1523235E0],"tree_param":{"num_deleted":"0","num_feature":"8","num_nodes":"51","size_leaf_vector":"1"}},{"base_weights":[-1.3985629E-2,-5.944829E-1,4.0051013E-2,-2.6838282E-1,5.7506554E-2,-3.221862E-1,1.2071964E-1,-2.5068247E-1,-4.8681274E-2,3.2497987E-2,4.697394E-1,-4.598305E-1,1.136035E-1,-6.959981E-1,1.0130004E-1,6.2150645E-1,9.774453E-2,-3.640588E-2,-1.73293E-1,1.9700608E-1,-1.7711473E-1,-2.4626933E-1,-4.105701E-2,1.5326902E-1,-2.45346E-1,7.023777E-1,3.6686033E-2,1.3451564E-1,-1.8867804E-1,3.771409E-2,-2.1493344E-1,8.993077E-2,-1.1645796E-2,2.5946563E-1,2.4731038E-2,-9.557125E-2,1.1312381E-2],"categories":[],"categories_nodes":[],"categories_segments":[],"categories_sizes":[],"default_left":[0,0,0,0,0,0,0,0,0,0,0,0,0,0,0,0,0,0,0,0,0,0,0,0,0,0,0,0,0,0,0,0,0,0,0,0,0],"id":9,"left_children":[1,3,5,-1,-1,7,9,-1,11,13,15,17,19,21,23,25,27,-1,-1,-1,29,-1,-1,31,-1,33,-1,-1,35,-1,-1,-1,-1,-1,-1,-1,-1],"loss_changes":[2.5546238E0,1.8075421E0,2.2230952E0,0E0,0E0,1.9093313E0,1.8894889E0,0E0,7.276146E-1,2.5993288E0,6.39719E-1,5.203265E-2,1.3887527E0,2.0058346E-1,2.369021E0,2.6233864E-1,5.6484103E-1,0E0,0E0,0E0,1.0760416E0,0E0,0E0,1.2864473E0,0E0,6.5529037E-1,0E0,0E0,1.1010276E-1,0E0,0E0,0E0,0E0,0E0,0E0,0E0,0E0],"parents":[2147483647,0,0,1,1,2,2,5,5,6,6,8,8,9,9,10,10,11,11,12,12,13,13,14,14,15,15,16,16,20,20,23,23,25,25,28,28],"right_children":[2,4,6,-1,-1,8,10,-1,12,14,16,18,20,22,24,26,28,-1,-1,-1,30,-1,-1,32,-1,34,-1,-1,36,-1,-1,-1,-1,-1,-1,-1,-1],"split_conditions":[-7.8314745E-1,6.0858315E-1,-6.879347E-1,-2.6838282E-1,5.7506554E-2,-3.9164406E-1,1.1031417E0,-2.5068247E-1,-2.8967962E-1,-8.7118113E-1,6.443871E-1,-5.218165E-1,-5.7786502E-2,1.6611037E0,9.373296E-1,1.8351065E0,-2.5292757E-1,-3.640588E-2,-1.73293E-1,1.9700608E-1,6.4720786E-1,-2.4626933E-1,-4.105701E-2,4.1226217E-1,-2.45346E-1,3.7980616E-1,3.6686033E-2,1.3451564E-1,1.1513811E0,3.771409E-2,-2.1493344E-1,8.993077E-2,-1.1645796E-2,2.5946563E-1,2.4731038E-2,-9.557125E-2,1.1312381E-2],"split_indices":[4,6,7,0,0,3,1,0,1,5,3,1,4,7,1,7,7,0,0,0,6,0,0,2,0,6,0,0,3,0,0,0,0,0,0,0,0],"split_type":[0,0,0,0,0,0,0,0,0,0,0,0,0,0,0,0,0,0,0,0,0,0,0,0,0,0,0,0,0,0,0,0,0,0,0,0,0],"sum_hessian":[7.9681076E1,5.933885E0,7.374719E1,4.194626E0,1.7392595E0,1.2886638E1,6.0860554E1,3.7645876E0,9.12205E0,4.945335E1,1.1407202E1,2.0627034E0,7.059347E0,3.480876E0,4.5972473E1,7.625428E0,3.7817738E0,1.0567362E0,1.0059671E0,2.022438E0,5.0369086E0,2.462638E0,1.0182382E0,4.4300854E1,1.6716198E0,6.21214E0,1.413288E0,1.4460449E0,2.335729E0,3.7168455E0,1.3200632E0,2.481477E1,1.9486086E1,4.608884E0,1.603256E0,1.2254207E0,1.110308E0],"tree_param":{"num_deleted":"0","num_feature":"8","num_nodes":"37","size_leaf_vector":"1"}},{"base_weights":[-2.2248957E-2,-8.846012E-2,3.9249894E-1,-4.991796E-2,-2.9132017E-1,-1.1390839E-1,5.203525E-1,-1.6920018E-1,2.75317E-1,8.168176E-3,7.2156996E-1,-3.077568E-1,7.942401E-2,4.2803705E-1,-5.192212E-1,-7.126153E-2,6.3966386E-2,2.563108E-1,2.9913434E-1,-1.6694257E-1,-5.9438956E-1,-3.7743375E-1,3.7277976E-1,2.6718217E-1,3.0609214E-1,-2.2608104E-1,-4.6380106E-3,2.0328522E-1,-9.815643E-2,-1.5101728E-1,9.818886E-4,-2.614662E-1,-6.356207E-2,-2.0624249E-1,1.312817E-1,1.7711104E-1,-9.8579325E-2,2.5242713E-1,3.3415224E-2],"categories":[],"categories_nodes":[],"categories_segments":[],"categories_sizes":[],"default_left":[0,0,0,0,0,0,0,0,0,0,0,0,0,0,0,0,0,0,0,0,0,0,0,0,0,0,0,0,0,0,0,0,0,0,0,0,0,0,0],"id":10,"left_children":[1,3,5,7,-1,-1,9,11,13,15,17,19,21,23,25,-1,-1,27,-1,29,31,33,35,37,-1,-1,-1,-1,-1,-1,-1,-1,-1,-1,-1,-1,-1,-1,-1],"loss_changes":[2.1734679E0,2.263958E0,1.2742707E0,2.6143103E0,0E0,0E0,1.0018716E0,1.7140063E0,2.4235644E0,2.4056555E-1,6.429684E-1,1.1802268E0,2.599529E0,1.2292933E0,3.8704443E-1,0E0,0E0,1.1934772E0,0E0,1.2986288E0,8.81078E-1,2.2392516E0,1.9758371E0,1.1366509E0,0E0,0E0,0E0,0E0,0E0,0E0,0E0,0E0,0E0,0E0,0E0,0E0,0E0,0E0,0E0],"parents":[2147483647,0,0,1,1,2,2,3,3,6,6,7,7,8,8,9,9,10,10,11,11,12,12,13,13,14,14,17,17,19,19,20,20,21,21,22,22,23,23],"right_children":[2,4,6,8,-1,-1,10,12,14,16,18,20,22,24,26,-1,-1,28,-1,30,32,34,36,38,-1,-1,-1,-1,-1,-1,-1,-1,-1,-1,-1,-1,-1,-1,-1],"split_conditions":[1.2341431E0,1.1043628E0,-7.7893436E-1,8.780909E-1,-2.9132017E-1,-1.1390839E-1,-1.2354725E-1,9.754886E-2,2.6181192E0,1.9891436E-1,-4.2693043E-1,1.9891436E-1,-1.7901973E-1,9.605087E-1,7.0519274E-1,-7.126153E-2,6.3966386E-2,1.7100041E0,2.9913434E-1,-3.9164406E-1,-1.2354725E-1,6.818561E-1,4.3242997E-1,1.0520937E0,3.0609214E-1,-2.2608104E-1,-4.6380106E-3,2.0328522E-1,-9.815643E-2,-1.5101728E-1,9.818886E-4,-2.614662E-1,-6.356207E-2,-2.0624249E-1,1.312817E-1,1.7711104E-1,-9.8579325E-2,2.5242713E-1,3.3415224E-2],"split_indices":[5,5,6,7,0,0,4,6,7,2,7,2,5,4,1,0,0,5,0,3,4,0,4,7,0,0,0,0,0,0,0,0,0,0,0,0,0,0,0],"split_type":[0,0,0,0,0,0,0,0,0,0,0,0,0,0,0,0,0,0,0,0,0,0,0,0,0,0,0,0,0,0,0,0,0,0,0,0,0,0,0],"sum_hessian":[7.688326E1,6.697755E1,9.905711E0,6.518746E1,1.7900836E0,1.1273181E0,8.778394E0,4.8046013E1,1.7141453E1,2.7694795E0,6.008914E0,3.0699528E1,1.7346483E1,1.4764761E1,2.3766928E0,1.1877838E0,1.5816958E0,2.9529798E0,3.055934E0,2.1647282E1,9.052246E0,6.670918E0,1.0675566E1,1.2752437E1,2.012324E0,1.2835491E0,1.0931438E0,1.6211516E0,1.3318284E0,6.6148944E0,1.5032388E1,4.5076237E0,4.5446224E0,4.9459796E0,1.7249384E0,8.268634E0,2.4069316E0,1.7823412E0,1.0970096E1],"tree_param":{"num_deleted":"0","num_feature":"8","num_nodes":"39","size_leaf_vector":"1"}},{"base_weights":[-1.8025327E-2,-1.6795062E-1,1.549763E-1,-6.8248725E-1,-9.121134E-2,8.0092415E-2,5.043052E-1,-2.5024604E-2,-2.4413227E-1,-2.2371137E-1,-2.3711227E-2,1.6030392E-1,-2.3970328E-1,-1.8303601E-2,2.0985089E-1,1.3765156E-1,-2.8578213E-1,2.2085236E-2,6.8218976E-1,-1.6727474E-1,3.672258E-1,-4.8272055E-1,1.6373284E-1,1.3474165E-1,-2.0367433E-1,2.069096E-2,2.6004466E-1,4.6669163E-2,-3.083156E-1,1.6549942E-1,-1.327869E-1,-2.2972327E-2,-3.289603E-1,-1.1515131E-1,1.2760796E-1,-1.886243E-2,1.3575901E-1],"categories":[],"categories_nodes":[],"categories_segments":[],"categories_sizes":[],"default_left":[0,0,0,0,0,0,0,0,0,0,0,0,0,0,0,0,0,0,0,0,0,0,0,0,0,0,0,0,0,0,0,0,0,0,0,0,0],"id":11,"left_children":[1,3,5,7,9,11,13,-1,-1,-1,15,17,-1,-1,-1,19,21,23,25,27,29,31,33,35,-1,-1,-1,-1,-1,-1,-1,-1,-1,-1,-1,-1,-1],"loss_changes":[1.9690611E0,1.5413549E0,8.8301945E-1,3.345499E-1,1.5946581E0,2.261655E0,7.0945644E-1,0E0,0E0,0E0,1.4820912E0,2.0451128E0,0E0,0E0,0E0,1.5868326E0,1.2587812E0,1.9562892E0,6.134851E-1,2.9505877E0,2.1477475E0,2.2893188E0,8.518501E-1,1.3584654E0,0E0,0E0,0E0,0E0,0E0,0E0,0E0,0E0,0E0,0E0,0E0,0E0,0E0],"parents":[2147483647,0,0,1,1,2,2,3,3,4,4,5,5,6,6,10,10,11,11,15,15,16,16,17,17,18,18,19,19,20,20,21,21,22,22,23,23],"right_children":[2,4,6,8,10,12,14,-1,-1,-1,16,18,-1,-1,-1,20,22,24,26,28,30,32,34,36,-1,-1,-1,-1,-1,-1,-1,-1,-1,-1,-1,-1,-1],"split_conditions":[2.0775656E-1,-8.4234107E-1,1.2341431E0,-1.2954159E0,-7.931112E-1,1.1043628E0,-5.8581096E-1,-2.5024604E-2,-2.4413227E-1,-2.2371137E-1,4.1220146E-1,7.125727E-1,-2.3970328E-1,-1.8303601E-2,2.0985089E-1,-1.7854716E-1,1.2197231E0,4.4517103E-1,-2.7995995E-1,-3.5907224E-1,1.1343625E0,6.4202136E-1,7.1051675E-1,7.910895E-1,-2.0367433E-1,2.069096E-2,2.6004466E-1,4.6669163E-2,-3.083156E-1,1.6549942E-1,-1.327869E-1,-2.2972327E-2,-3.289603E-1,-1.1515131E-1,1.2760796E-1,-1.886243E-2,1.3575901E-1],"split_indices":[1,5,5,3,4,5,6,0,0,0,5,6,0,0,0,2,5,6,5,2,2,2,3,7,0,0,0,0,0,0,0,0,0,0,0,0,0],"split_type":[0,0,0,0,0,0,0,0,0,0,0,0,0,0,0,0,0,0,0,0,0,0,0,0,0,0,0,0,0,0,0,0,0,0,0,0,0],"sum_hessian":[7.391264E1,3.9612858E1,3.4299786E1,4.1167145E0,3.5496143E1,2.9257317E1,5.042468E0,1.0339751E0,3.0827394E0,2.3792315E0,3.311691E1,2.7560299E1,1.6970172E0,1.4706671E0,3.5718007E0,2.0790499E1,1.2326411E1,2.261354E1,4.946758E0,9.046318E0,1.1744181E1,8.519873E0,3.8065383E0,2.017848E1,2.4350612E0,1.4625567E0,3.4842012E0,7.1738825E0,1.8724362E0,9.825319E0,1.9188609E0,5.804153E0,2.7157202E0,1.0796901E0,2.7268484E0,1.2936239E1,7.2422404E0],"tree_param":{"num_deleted":"0","num_feature":"8","num_nodes":"37","size_leaf_vector":"1"}},{"base_weights":[-2.7588576E-2,-7.6002404E-2,4.0143532E-1,-3.3411747E-1,-1.3343732E-2,1.01383235E-2,6.266339E-1,-5.1873493E-1,3.495214E-2,-4.791633E-2,2.352552E-1,7.074377E-2,-6.7167565E-2,2.434154E-1,3.1519037E-2,-6.29966E-1,-1.2902037E-2,6.031279E-1,-1.9222045E-1,3.6179498E-2,-3.1593236E-1,-4.75606E-2,-7.567105E-1,4.0768504E-2,2.3893568E-1,-2.1523473E-1,9.0404436E-2,-9.146734E-1,1.8033989E-2,-2.6285636E-1,-3.9739072E-2,9.0905355E-4,1.5707594E-1,-3.235376E-1,-8.670526E-2,-9.272146E-2,1.04889005E-1],"categories":[],"categories_nodes":[],"categories_segments":[],"categories_sizes":[],"default_left":[0,0,0,0,0,0,0,0,0,0,0,0,0,0,0,0,0,0,0,0,0,0,0,0,0,0,0,0,0,0,0,0,0,0,0,0,0],"id":12,"left_children":[1,3,5,7,9,11,13,15,17,19,-1,-1,-1,-1,-1,21,-1,23,-1,25,27,-1,29,-1,-1,-1,31,33,35,-1,-1,-1,-1,-1,-1,-1,-1],"loss_changes":[1.527489E0,1.056568E0,6.516801E-1,8.884592E-1,1.5218343E0,2.5054684E-1,3.6988962E-1,4.26785E-1,2.381198E0,1.1955577E0,0E0,0E0,0E0,0E0,0E0,2.9104257E-1,0E0,1.9324446E-1,0E0,1.7357066E0,2.54603E0,0E0,2.684989E-1,0E0,0E0,0E0,1.475666E0,1.5444636E-1,1.0952555E0,0E0,0E0,0E0,0E0,0E0,0E0,0E0,0E0],"parents":[2147483647,0,0,1,1,2,2,3,3,4,4,5,5,6,6,7,7,8,8,9,9,15,15,17,17,19,19,20,20,22,22,26,26,27,27,28,28],"right_children":[2,4,6,8,10,12,14,16,18,20,-1,-1,-1,-1,-1,22,-1,24,-1,26,28,-1,30,-1,-1,-1,32,34,36,-1,-1,-1,-1,-1,-1,-1,-1],"split_conditions":[1.5010906E0,-6.879347E-1,-1.4572442E-1,1.7776936E-1,2.3012254E0,2.3916112E-1,9.650923E-1,6.655817E-1,6.73948E-1,4.0253872E-1,2.352552E-1,7.074377E-2,-6.7167565E-2,2.434154E-1,3.1519037E-2,-8.284601E-1,-1.2902037E-2,-5.263969E-1,-1.9222045E-1,-1.1019017E0,6.197485E-1,-4.75606E-2,-1.995641E-1,4.0768504E-2,2.3893568E-1,-2.1523473E-1,2.0326373E-1,5.719225E-1,7.0408803E-1,-2.6285636E-1,-3.9739072E-2,9.0905355E-4,1.5707594E-1,-3.235376E-1,-8.670526E-2,-9.272146E-2,1.04889005E-1],"split_indices":[1,7,2,6,5,5,7,4,6,4,0,0,0,0,0,0,0,0,0,5,4,0,6,0,0,0,4,4,7,0,0,0,0,0,0,0,0],"split_type":[0,0,0,0,0,0,0,0,0,0,0,0,0,0,0,0,0,0,0,0,0,0,0,0,0,0,0,0,0,0,0,0,0,0,0,0,0],"sum_hessian":[7.107171E1,6.46042E1,6.467507E0,1.1773266E1,5.2830933E1,2.7442374E0,3.7232695E0,7.577365E0,4.195901E0,5.153675E1,1.2941844E0,1.3931824E0,1.3510551E0,2.339068E0,1.3842015E0,5.87865E0,1.6987149E0,2.337617E0,1.8582839E0,3.9886505E1,1.1650244E1,1.7225158E0,4.156134E0,1.1825432E0,1.1550736E0,1.8563007E0,3.8030205E1,3.548897E0,8.101347E0,3.1497064E0,1.0064279E0,3.248489E1,5.5453153E0,2.2390342E0,1.3098631E0,4.112483E0,3.9888642E0],"tree_param":{"num_deleted":"0","num_feature":"8","num_nodes":"37","size_leaf_vector":"1"}},{"base_weights":[-2.4405465E-2,-2.8321683E-1,5.007449E-2,-4.7151908E-1,-9.237649E-3,7.649492E-2,-1.32755E-1,-5.734682E-1,-1.3254792E-2,-2.9885072E-1,5.110203E-1,-8.470188E-3,3.2029042E-1,-7.3408615E-3,-6.683757E-1,1.63822E-2,-1.8202111E-1,3.5768542E-2,1.942135E-1,3.790799E-2,-1.9472115E-1,1.6966648E-1,2.592915E-1,-7.548615E-2,-2.3994921E-1,-1.279712E-1,1.0455274E-1,-4.863363E-1,1.0255677E-1,4.2563176E-1,-3.3954686E-1,2.5903491E-2,-2.4391986E-1,1.4086473E-1,5.2462034E-3,5.678551E-4,2.3739617E-1,-2.1665604E-1,4.6705447E-2],"categories":[],"categories_nodes":[],"categories_segments":[],"categories_sizes":[],"default_left":[0,0,0,0,0,0,0,0,0,0,0,0,0,0,0,0,0,0,0,0,0,0,0,0,0,0,0,0,0,0,0,0,0,0,0,0,0,0,0],"id":13,"left_children":[1,3,5,7,9,11,-1,13,-1,15,17,19,21,-1,23,25,-1,-1,-1,27,-1,29,-1,-1,-1,-1,-1,31,33,35,37,-1,-1,-1,-1,-1,-1,-1,-1],"loss_changes":[1.3610389E0,8.0893564E-1,7.510392E-1,3.8083243E-1,1.2739209E0,1.1037595E0,0E0,3.7149405E-1,0E0,5.351316E-1,8.469057E-2,1.2246282E0,9.8112094E-1,0E0,1.4435887E-1,6.852606E-1,0E0,0E0,0E0,1.3584167E0,0E0,1.7116022E0,0E0,0E0,0E0,0E0,0E0,8.958727E-1,1.090623E0,1.3070803E0,9.799675E-1,0E0,0E0,0E0,0E0,0E0,0E0,0E0,0E0],"parents":[2147483647,0,0,1,1,2,2,3,3,4,4,5,5,7,7,9,9,10,10,11,11,12,12,14,14,15,15,19,19,21,21,27,27,28,28,29,29,30,30],"right_children":[2,4,6,8,10,12,-1,14,-1,16,18,20,22,-1,24,26,-1,-1,-1,28,-1,30,-1,-1,-1,-1,-1,32,34,36,38,-1,-1,-1,-1,-1,-1,-1,-1],"split_conditions":[-4.8865408E-1,-3.2680774E-1,2.531118E0,9.839194E-1,4.4517103E-1,7.910895E-1,-1.32755E-1,-1.4914567E0,-1.3254792E-2,-3.7859E-2,-2.5292757E-1,1.8901091E0,9.605087E-1,-7.3408615E-3,-2.3734154E-1,-6.5446615E-1,-1.8202111E-1,3.5768542E-2,1.942135E-1,-8.294436E-1,-1.9472115E-1,3.9855322E-1,2.592915E-1,-7.548615E-2,-2.3994921E-1,-1.279712E-1,1.0455274E-1,-3.5907224E-1,-1.9019237E-1,1.8147957E-1,6.197485E-1,2.5903491E-2,-2.4391986E-1,1.4086473E-1,5.2462034E-3,5.678551E-4,2.3739617E-1,-2.1665604E-1,4.6705447E-2],"split_indices":[1,4,7,0,6,7,0,2,0,4,7,0,4,0,3,1,0,0,0,6,0,4,0,0,0,0,0,2,1,3,4,0,0,0,0,0,0,0,0],"split_type":[0,0,0,0,0,0,0,0,0,0,0,0,0,0,0,0,0,0,0,0,0,0,0,0,0,0,0,0,0,0,0,0,0,0,0,0,0,0,0],"sum_hessian":[6.887129E1,1.4764241E1,5.4107048E1,8.322971E0,6.4412704E0,5.2154423E1,1.9526248E0,6.4437366E0,1.8792342E0,4.4112325E0,2.0300379E0,3.9391396E1,1.2763027E1,1.1351585E0,5.308578E0,2.6474264E0,1.7638061E0,1.0080441E0,1.0219938E0,3.7609375E1,1.7820196E0,1.1022933E1,1.7400938E0,1.9717157E0,3.3368623E0,1.0125896E0,1.6348367E0,3.4126956E0,3.419668E1,7.444806E0,3.5781271E0,1.5070021E0,1.9056934E0,5.5846634E0,2.8612017E1,3.9143083E0,3.5304978E0,1.7599919E0,1.8181354E0],"tree_param":{"num_deleted":"0","num_feature":"8","num_nodes":"39","size_leaf_vector":"1"}},{"base_weights":[-2.3808712E-2,-1.4799263E-1,1.1829942E-1,-3.3294082E-1,-1.8648753E-2,-1.393555E-1,2.0745596E-1,-6.2825876E-1,-6.360491E-2,2.9321507E-1,-1.6938876E-1,1.3469015E-1,-3.3651358E-1,1.3641989E-1,2.0747782E-1,-2.605339E-1,-2.5280753E-1,3.263862E-1,-3.189575E-1,-1.653786E-1,5.116253E-1,6.2304076E-2,-5.4333097E-1,2.5523344E-1,-6.465068E-1,2.3125036E-1,-1.4056352E-1,-1.4683437E-1,6.493517E-2,1.9820377E-1,-9.177557E-3,5.7809863E-2,-5.397372E-1,1.760789E-2,2.504938E-1,-1.9006605E-1,2.4594925E-1,3.893141E-2,-7.620389E-1,-4.394244E-2,1.599195E-1,-1.5676593E-2,-2.4031141E-1,1.13376774E-1,6.437985E-1,1.00280836E-1,-3.7807092E-1,-2.1172436E-1,-6.4306565E-2,-7.583107E-2,1.1077952E-1,-1.2667544E-1,8.676816E-2,-3.7010405E-2,-2.7289662E-1,1.3601799E-4,1.4894547E-1,2.3736645E-1,4.4368464E-2,-1.8712221E-1,3.3289686E-2],"categories":[],"categories_nodes":[],"categories_segments":[],"categories_sizes":[],"default_left":[0,0,0,0,0,0,0,0,0,0,0,0,0,0,0,0,0,0,0,0,0,0,0,0,0,0,0,0,0,0,0,0,0,0,0,0,0,0,0,0,0,0,0,0,0,0,0,0,0,0,0,0,0,0,0,0,0,0,0,0,0],"id":14,"left_children":[1,3,5,7,9,11,13,15,17,19,21,-1,23,25,-1,27,-1,29,31,-1,33,35,37,39,41,43,45,-1,-1,-1,-1,-1,47,49,-1,51,-1,-1,53,-1,-1,-1,-1,55,57,-1,59,-1,-1,-1,-1,-1,-1,-1,-1,-1,-1,-1,-1,-1,-1],"loss_changes":[1.2203261E0,8.7452525E-1,7.718309E-1,1.1604816E0,1.1179624E0,1.1848317E0,7.457819E-1,3.3922195E-1,1.0009736E0,1.7153468E0,1.4160715E0,0E0,1.4943435E0,6.2477815E-1,0E0,5.489965E-1,0E0,5.044504E-1,7.759427E-1,0E0,1.0544254E0,2.210502E0,1.0125132E0,4.361387E-1,4.208374E-1,7.622366E-1,8.450943E-1,0E0,0E0,0E0,0E0,0E0,8.738482E-2,4.4221172E-1,0E0,1.109618E0,0E0,0E0,3.4310913E-1,0E0,0E0,0E0,0E0,6.302104E-1,1.463995E-1,0E0,6.3596195E-1,0E0,0E0,0E0,0E0,0E0,0E0,0E0,0E0,0E0,0E0,0E0,0E0,0E0,0E0],"parents":[2147483647,0,0,1,1,2,2,3,3,4,4,5,5,6,6,7,7,8,8,9,9,10,10,12,12,13,13,15,15,17,17,18,18,20,20,21,21,22,22,23,23,24,24,25,25,26,26,32,32,33,33,35,35,38,38,43,43,44,44,46,46],"right_children":[2,4,6,8,10,12,14,16,18,20,22,-1,24,26,-1,28,-1,30,32,-1,34,36,38,40,42,44,46,-1,-1,-1,-1,-1,48,50,-1,52,-1,-1,54,-1,-1,-1,-1,56,58,-1,60,-1,-1,-1,-1,-1,-1,-1,-1,-1,-1,-1,-1,-1,-1],"split_conditions":[2.0775656E-1,-3.39929E-1,-3.664801E-1,1.3739315E-1,-1.2712546E-1,-2.4510498E-1,1.7024615E0,-5.101407E-1,-5.888314E-1,-8.7118113E-1,-5.7542726E-2,1.3469015E-1,-9.2886126E-1,9.7503537E-1,2.0747782E-1,5.6698734E-1,-2.5280753E-1,7.1051675E-1,1.6706097E-1,-1.653786E-1,-9.9634245E-2,-3.22842E-1,-5.263969E-1,7.772963E-2,-6.660314E-1,6.884735E-1,5.0621825E-1,-1.4683437E-1,6.493517E-2,1.9820377E-1,-9.177557E-3,5.7809863E-2,-5.263969E-1,-3.0347118E-1,2.504938E-1,3.53066E-1,2.4594925E-1,3.893141E-2,-3.8666815E-1,-4.394244E-2,1.599195E-1,-1.5676593E-2,-2.4031141E-1,7.125727E-1,9.041672E-1,1.00280836E-1,1.1363041E0,-2.1172436E-1,-6.4306565E-2,-7.583107E-2,1.1077952E-1,-1.2667544E-1,8.676816E-2,-3.7010405E-2,-2.7289662E-1,1.3601799E-4,1.4894547E-1,2.3736645E-1,4.4368464E-2,-1.8712221E-1,3.3289686E-2],"split_indices":[1,7,5,3,3,4,3,4,2,5,1,0,5,3,0,6,0,3,5,0,4,1,0,0,6,3,1,0,0,0,0,0,0,3,0,6,0,0,5,0,0,0,0,6,1,0,1,0,0,0,0,0,0,0,0,0,0,0,0,0,0],"split_type":[0,0,0,0,0,0,0,0,0,0,0,0,0,0,0,0,0,0,0,0,0,0,0,0,0,0,0,0,0,0,0,0,0,0,0,0,0,0,0,0,0,0,0,0,0,0,0,0,0,0,0,0,0,0,0,0,0,0,0,0,0],"sum_hessian":[6.715785E1,3.581704E1,3.1340813E1,1.4092361E1,2.1724676E1,7.912194E0,2.342862E1,6.086306E0,8.006056E0,6.7710266E0,1.495365E1,1.6654054E0,6.2467885E0,2.1548628E1,1.8799918E0,3.057713E0,3.028593E0,3.0578022E0,4.9482536E0,1.0782044E0,5.692822E0,9.747519E0,5.2061315E0,2.208199E0,4.0385895E0,1.6175688E1,5.3729396E0,2.048479E0,1.009234E0,1.139737E0,1.9180653E0,1.5298989E0,3.4183545E0,2.6692374E0,3.0235846E0,7.8735433E0,1.8739755E0,1.3764799E0,3.8296514E0,1.0961303E0,1.1120689E0,1.1096338E0,2.9289556E0,1.3572548E1,2.6031392E0,1.6556003E0,3.7173393E0,1.4894513E0,1.9289032E0,1.6679816E0,1.0012558E0,5.3842487E0,2.4892945E0,1.0636113E0,2.76604E0,1.1255968E1,2.3165798E0,1.5475624E0,1.0555768E0,2.290998E0,1.4263414E0],"tree_param":{"num_deleted":"0","num_feature":"8","num_nodes":"61","size_leaf_vector":"1"}},{"base_weights":[-1.47308605E-2,-5.7826113E-2,3.4187886E-1,-1.9193205E-1,-3.3439267E-2,5.017082E-1,-2.6038244E-2,-3.0177376E-1,1.1333953E-2,1.3318415E-2,2.012865E-1,-9.321572E-2,-2.285982E-1,1.8922776E-1,-1.2340997E-1,-1.9327997E-1,2.4260037E-1,4.0921465E-2,6.540757E-1,-5.7701725E-1,1.7476654E-2,1.4949355E-1,-3.9365427E-3,8.577296E-2,-8.332054E-2,-1.22712385E-2,2.7096656E-1,-2.4195549E-1,4.0356934E-2,-5.9902307E-2,6.0840853E-2],"categories":[],"categories_nodes":[],"categories_segments":[],"categories_sizes":[],"default_left":[0,0,0,0,0,0,0,0,0,0,0,0,0,0,0,0,0,0,0,0,0,0,0,0,0,0,0,0,0,0,0],"id":15,"left_children":[1,3,5,-1,7,9,-1,11,13,-1,-1,15,-1,17,19,-1,21,23,25,27,29,-1,-1,-1,-1,-1,-1,-1,-1,-1,-1],"loss_changes":[1.020811E0,8.154952E-1,5.346312E-1,0E0,6.960751E-1,3.857267E-1,0E0,7.237412E-1,1.2307906E0,0E0,0E0,1.4215941E0,0E0,1.497142E0,1.8805058E0,0E0,3.3185378E-1,1.4709557E0,9.5116186E-1,1.2459476E0,9.78268E-1,0E0,0E0,0E0,0E0,0E0,0E0,0E0,0E0,0E0,0E0],"parents":[2147483647,0,0,1,1,2,2,4,4,5,5,7,7,8,8,11,11,13,13,14,14,16,16,17,17,18,18,19,19,20,20],"right_children":[2,4,6,-1,8,10,-1,12,14,-1,-1,16,-1,18,20,-1,22,24,26,28,30,-1,-1,-1,-1,-1,-1,-1,-1,-1,-1],"split_conditions":[1.4679282E0,-1.3614621E0,2.2969885E0,-1.9193205E-1,-8.1755906E-1,-4.8776367E-1,-2.6038244E-2,7.8712225E-1,-2.5007328E-1,1.3318415E-2,2.012865E-1,-4.3858027E-1,-2.285982E-1,-4.4616786E-1,3.812627E-2,-1.9327997E-1,-9.7205776E-1,3.1379396E-1,-2.9492372E-1,5.725431E-1,3.3578208E-1,1.4949355E-1,-3.9365427E-3,8.577296E-2,-8.332054E-2,-1.22712385E-2,2.7096656E-1,-2.4195549E-1,4.0356934E-2,-5.9902307E-2,6.0840853E-2],"split_indices":[1,5,1,0,6,6,0,5,6,0,0,5,0,6,6,0,6,2,4,1,3,0,0,0,0,0,0,0,0,0,0],"split_type":[0,0,0,0,0,0,0,0,0,0,0,0,0,0,0,0,0,0,0,0,0,0,0,0,0,0,0,0,0,0,0],"sum_hessian":[6.413725E1,5.7969635E1,6.167618E0,1.3166167E0,5.665302E1,4.368472E0,1.7991457E0,7.2803626E0,4.9372658E1,1.520989E0,2.8474832E0,5.8375196E0,1.4428431E0,2.110488E1,2.8267776E1,1.8626049E0,3.9749148E0,1.6825016E1,4.2798643E0,5.965446E0,2.230233E1,1.5131668E0,2.4617481E0,9.570118E0,7.2548976E0,1.3499825E0,2.9298818E0,4.409665E0,1.5557806E0,1.0233767E1,1.2068564E1],"tree_param":{"num_deleted":"0","num_feature":"8","num_nodes":"31","size_leaf_vector":"1"}},{"base_weights":[-1.4350458E-2,-4.1773912E-1,1.4626291E-2,-2.1748373E-1,5.0182354E-2,-1.7509094E-1,3.5768308E-2,5.741117E-2,-1.4927706E-1,1.1892481E-2,4.9317488E-1,3.6785204E-2,-1.8785319E-1,1.9239698E-1,2.3885438E-2,-1.3081261E-2,8.523241E-2],"categories":[],"categories_nodes":[],"categories_segments":[],"categories_sizes":[],"default_left":[0,0,0,0,0,0,0,0,0,0,0,0,0,0,0,0,0],"id":16,"left_children":[1,3,5,-1,-1,-1,7,9,-1,11,13,15,-1,-1,-1,-1,-1],"loss_changes":[7.4612606E-1,8.8988537E-1,7.8019685E-1,0E0,0E0,0E0,7.087711E-1,1.135155E0,0E0,8.6657363E-1,2.8075492E-1,1.0474325E0,0E0,0E0,0E0,0E0,0E0],"parents":[2147483647,0,0,1,1,2,2,6,6,7,7,9,9,10,10,11,11],"right_children":[2,4,6,-1,-1,-1,8,10,-1,12,14,16,-1,-1,-1,-1,-1],"split_conditions":[-7.8314745E-1,6.0858315E-1,-1.289362E0,-2.1748373E-1,5.0182354E-2,-1.7509094E-1,2.8874395E0,1.5010906E0,-1.4927706E-1,1.4347658E0,2.2969885E0,8.780909E-1,-1.8785319E-1,1.9239698E-1,2.3885438E-2,-1.3081261E-2,8.523241E-2],"split_indices":[4,6,5,0,0,0,6,1,0,1,1,7,0,0,0,0,0],"split_type":[0,0,0,0,0,0,0,0,0,0,0,0,0,0,0,0,0],"sum_hessian":[6.2309345E1,3.2767649E0,5.9032578E1,1.9916832E0,1.2850817E0,1.1068262E0,5.7925755E1,5.6524437E1,1.4013152E0,5.2108604E1,4.415832E0,5.1059013E1,1.0495927E0,2.845676E0,1.5701562E0,3.915563E1,1.1903386E1],"tree_param":{"num_deleted":"0","num_feature":"8","num_nodes":"17","size_leaf_vector":"1"}},{"base_weights":[-1.6712891E-2,-1.2337551E-1,7.43939E-2,-1.7628428E-2,-5.7293767E-1,-2.7910852E-1,1.4619212E-1,-2.0399423E-1,3.407644E-1,9.284111E-2,-9.0041983E-1,-5.4455656E-1,8.22262E-2,2.169421E-1,4.3500908E-2,-3.9648384E-1,3.762346E-1,7.889901E-1,4.846611E-2,-3.0210906E-1,-8.372348E-2,-2.613266E-1,-9.563829E-3,-3.6109936E-1,1.912629E-1,-3.1301476E-2,-7.4551433E-1,2.1261185E-1,-2.430873E-3,2.9435587E-1,5.634046E-2,-3.0759388E-1,5.0298506E-1,1.450926E-1,-6.378431E-1,2.6497248E-1,2.7222542E-2,-1.4689659E-1,6.996442E-2,-2.5848353E-1,-7.0693836E-2,-8.1275225E-2,8.3119445E-2,-1.7882793E-1,1.5740752E-2,2.6555972E-2,2.0369427E-1,-2.4731418E-1,1.2574854E-2,-3.9330054E-2,8.611186E-2],"categories":[],"categories_nodes":[],"categories_segments":[],"categories_sizes":[],"default_left":[0,0,0,0,0,0,0,0,0,0,0,0,0,0,0,0,0,0,0,0,0,0,0,0,0,0,0,0,0,0,0,0,0,0,0,0,0,0,0,0,0,0,0,0,0,0,0,0,0,0,0],"id":17,"left_children":[1,3,5,7,9,11,13,15,17,-1,19,21,-1,-1,23,25,27,29,31,-1,-1,-1,-1,33,35,37,39,-1,41,-1,-1,43,45,-1,47,-1,49,-1,-1,-1,-1,-1,-1,-1,-1,-1,-1,-1,-1,-1,-1],"loss_changes":[6.133985E-1,1.3694845E0,9.077582E-1,1.7075984E0,1.8663911E0,1.0465041E0,1.6895438E0,2.021109E0,1.11007E0,0E0,1.3482571E-3,7.194854E-1,0E0,0E0,1.6068821E0,1.6428413E0,5.919512E-1,2.0791054E-1,1.1856992E0,0E0,0E0,0E0,0E0,1.998066E0,2.1889195E0,1.0152779E0,1.9001985E-1,0E0,3.1432438E-1,0E0,0E0,4.6680605E-1,1.7170161E-1,0E0,7.795222E-1,0E0,7.2833663E-1,0E0,0E0,0E0,0E0,0E0,0E0,0E0,0E0,0E0,0E0,0E0,0E0,0E0,0E0],"parents":[2147483647,0,0,1,1,2,2,3,3,4,4,5,5,6,6,7,7,8,8,10,10,11,11,14,14,15,15,16,16,17,17,18,18,23,23,24,24,25,25,26,26,28,28,31,31,32,32,34,34,36,36],"right_children":[2,4,6,8,10,12,14,16,18,-1,20,22,-1,-1,24,26,28,30,32,-1,-1,-1,-1,34,36,38,40,-1,42,-1,-1,44,46,-1,48,-1,50,-1,-1,-1,-1,-1,-1,-1,-1,-1,-1,-1,-1,-1,-1],"split_conditions":[7.510692E-2,-5.7542726E-2,-7.9081887E-1,-9.9634245E-2,-3.5907224E-1,6.2373394E-1,-6.719737E-1,9.839194E-1,-5.9750043E-3,9.284111E-2,5.275617E-1,2.0352279E-1,8.22262E-2,2.169421E-1,-4.6399462E-1,-3.5907224E-1,1.8207952E-1,7.0408803E-1,1.3320242E-1,-3.0210906E-1,-8.372348E-2,-2.613266E-1,-9.563829E-3,-2.5506875E-1,-2.8275573E-1,-2.078598E-1,-3.22842E-1,2.1261185E-1,4.900846E-1,2.9435587E-1,5.634046E-2,4.1226217E-1,1.8147957E-1,1.450926E-1,7.910895E-1,2.6497248E-1,7.125727E-1,-1.4689659E-1,6.996442E-2,-2.5848353E-1,-7.0693836E-2,-8.1275225E-2,8.3119445E-2,-1.7882793E-1,1.5740752E-2,2.6555972E-2,2.0369427E-1,-2.4731418E-1,1.2574854E-2,-3.9330054E-2,8.611186E-2],"split_indices":[1,1,6,4,2,4,6,0,4,0,5,3,0,0,6,2,7,7,6,0,0,0,0,4,6,5,1,0,3,0,0,2,3,0,7,0,6,0,0,0,0,0,0,0,0,0,0,0,0,0,0],"split_type":[0,0,0,0,0,0,0,0,0,0,0,0,0,0,0,0,0,0,0,0,0,0,0,0,0,0,0,0,0,0,0,0,0,0,0,0,0,0,0,0,0,0,0,0,0,0,0,0,0,0,0],"sum_hessian":[6.117735E1,2.8019516E1,3.3157833E1,2.3525099E1,4.494417E0,5.1101813E0,2.8047653E1,1.5760421E1,7.764678E0,1.2313955E0,3.263022E0,3.463741E0,1.6464401E0,3.3249965E0,2.4722656E1,1.207218E1,3.6882415E0,2.3941295E0,5.3705487E0,2.2553177E0,1.0077041E0,1.6889341E0,1.774807E0,6.227311E0,1.8495344E1,6.432103E0,5.640076E0,1.4998081E0,2.1884334E0,1.335198E0,1.0589314E0,3.192707E0,2.1778414E0,1.3521991E0,4.875112E0,2.7041245E0,1.5791221E1,2.0422156E0,4.389888E0,4.032094E0,1.6079822E0,1.1318542E0,1.0565792E0,1.4085709E0,1.7841362E0,1.0971204E0,1.0807211E0,3.6584246E0,1.2166876E0,1.0119928E1,5.671292E0],"tree_param":{"num_deleted":"0","num_feature":"8","num_nodes":"51","size_leaf_vector":"1"}},{"base_weights":[-1.1488203E-2,7.1915463E-3,-1.3022697E-1,-1.77455E-2,1.625311E-1,-4.321302E-1,9.440608E-3,2.0591564E-2,-1.9869247E-1,3.209585E-1,-3.686081E-2,-1.02803014E-1,5.300063E-1,-5.452159E-1,1.1345884E-2,1.9843073E-1,1.4545772E-2,9.3662523E-4,-2.5307506E-1,1.2217467E-1,-8.108399E-3],"categories":[],"categories_nodes":[],"categories_segments":[],"categories_sizes":[],"default_left":[0,0,0,0,0,0,0,0,0,0,0,0,0,0,0,0,0,0,0,0,0],"id":18,"left_children":[1,3,-1,5,-1,7,9,-1,-1,11,13,-1,15,17,19,-1,-1,-1,-1,-1,-1],"loss_changes":[4.7252288E-1,7.818541E-1,0E0,6.3850105E-1,0E0,4.4756967E-1,7.882143E-1,0E0,0E0,1.1621957E0,1.1765665E0,0E0,3.3294213E-1,6.827471E-1,6.886109E-1,0E0,0E0,0E0,0E0,0E0,0E0],"parents":[2147483647,0,0,1,1,3,3,5,5,6,6,9,9,10,10,12,12,13,13,14,14],"right_children":[2,4,-1,6,-1,8,10,-1,-1,12,14,-1,16,18,20,-1,-1,-1,-1,-1,-1],"split_conditions":[2.8874395E0,2.117917E0,-1.3022697E-1,-7.8314745E-1,1.625311E-1,-7.7024096E-1,-5.300682E-1,2.0591564E-2,-1.9869247E-1,-6.0093325E-1,-4.304307E-1,-1.02803014E-1,9.7503537E-1,7.772963E-2,-3.3477873E-1,1.9843073E-1,1.4545772E-2,9.3662523E-4,-2.5307506E-1,1.2217467E-1,-8.108399E-3],"split_indices":[6,6,0,4,0,5,4,0,0,7,4,0,3,0,4,0,0,0,0,0,0],"split_type":[0,0,0,0,0,0,0,0,0,0,0,0,0,0,0,0,0,0,0,0,0],"sum_hessian":[5.8462322E1,5.6928944E1,1.5333785E0,5.5315395E1,1.6135496E0,2.4885392E0,5.2826855E1,1.0046511E0,1.483888E0,6.06815E0,4.6758705E1,1.3004774E0,4.7676725E0,3.1570141E0,4.3601692E1,3.451859E0,1.3158135E0,1.461188E0,1.695826E0,3.003363E0,4.0598328E1],"tree_param":{"num_deleted":"0","num_feature":"8","num_nodes":"21","size_leaf_vector":"1"}},{"base_weights":[-1.1814534E-2,-1.8792082E-1,3.5474006E-2,-3.709392E-1,2.4672432E-2,1.2325323E-1,-1.072732E-1,-9.01855E-2,-2.3829126E-1,-1.7224023E-1,2.3083548E-1,4.825069E-2,5.148882E-1,-4.8992744E-1,8.865271E-2,-1.3801618E-1,2.66135E-1,4.545647E-1,-6.111117E-2,-6.0234368E-2,2.9603636E-1,-4.391528E-2,2.2472395E-1,1.5047946E-2,-7.072649E-1,-1.8341719E-1,2.1569538E-1,1.0463098E-1,1.29649835E-2,7.503671E-3,2.0780857E-1,6.973303E-2,-9.776404E-2,2.8580195E-1,-2.2282054E-1,-6.5515384E-2,4.253902E-1,-2.8498337E-1,-3.1457912E-2,-1.8733197E-1,3.3134398E-1,-1.0468012E-1,1.7320015E-1,6.0949147E-2,-1.3456003E-1,4.3207365E-3,1.5084973E-1,6.505101E-2,-1.4419483E-1,1.8479589E-1,2.1974932E-2],"categories":[],"categories_nodes":[],"categories_segments":[],"categories_sizes":[],"default_left":[0,0,0,0,0,0,0,0,0,0,0,0,0,0,0,0,0,0,0,0,0,0,0,0,0,0,0,0,0,0,0,0,0,0,0,0,0,0,0,0,0,0,0,0,0,0,0,0,0,0,0],"id":19,"left_children":[1,3,5,7,9,11,13,15,-1,-1,17,19,21,23,25,-1,27,29,31,33,35,-1,-1,-1,37,-1,39,-1,-1,-1,-1,-1,-1,41,43,-1,45,-1,-1,47,49,-1,-1,-1,-1,-1,-1,-1,-1,-1,-1],"loss_changes":[4.952795E-1,4.9856868E-1,6.033183E-1,7.3922193E-1,9.666687E-1,8.4540534E-1,1.427932E0,8.116894E-1,0E0,0E0,4.0266776E-1,7.1588844E-1,8.3109283E-1,7.875042E-1,1.2933872E0,0E0,4.566522E-2,3.2717574E-1,3.3780527E-1,1.1265535E0,6.303266E-1,0E0,0E0,0E0,5.779252E-1,0E0,6.117528E-1,0E0,0E0,0E0,0E0,0E0,0E0,1.4000038E0,1.3809636E0,0E0,2.0896089E-1,0E0,0E0,4.9168682E-1,6.546253E-1,0E0,0E0,0E0,0E0,0E0,0E0,0E0,0E0,0E0,0E0],"parents":[2147483647,0,0,1,1,2,2,3,3,4,4,5,5,6,6,7,7,10,10,11,11,12,12,13,13,14,14,16,16,17,17,18,18,19,19,20,20,24,24,26,26,33,33,34,34,36,36,39,39,40,40],"right_children":[2,4,6,8,10,12,14,16,-1,-1,18,20,22,24,26,-1,28,30,32,34,36,-1,-1,-1,38,-1,40,-1,-1,-1,-1,-1,-1,42,44,-1,46,-1,-1,48,50,-1,-1,-1,-1,-1,-1,-1,-1,-1,-1],"split_conditions":[-4.8865408E-1,-4.7256194E-2,3.6866197E-1,-7.8924745E-2,-3.39929E-1,1.6739424E-1,6.197485E-1,-6.0093325E-1,-2.3829126E-1,-1.7224023E-1,3.9778143E-1,6.1708665E-1,7.510692E-2,4.9220275E-2,-5.2390337E-1,-1.3801618E-1,-8.534406E-1,-9.9634245E-2,6.4202136E-1,-6.0093325E-1,-7.9081887E-1,-4.391528E-2,2.2472395E-1,1.5047946E-2,9.601626E-1,-1.8341719E-1,2.0775656E-1,1.0463098E-1,1.29649835E-2,7.503671E-3,2.0780857E-1,6.973303E-2,-9.776404E-2,-1.7121188E-1,-3.4872797E-1,-6.5515384E-2,-7.1256083E-1,-2.8498337E-1,-3.1457912E-2,7.811612E-1,9.744579E-1,-1.0468012E-1,1.7320015E-1,6.0949147E-2,-1.3456003E-1,4.3207365E-3,1.5084973E-1,6.505101E-2,-1.4419483E-1,1.8479589E-1,2.1974932E-2],"split_indices":[1,2,4,7,7,4,4,7,0,0,5,7,1,3,3,0,1,4,2,7,6,0,0,0,5,0,1,0,0,0,0,0,0,3,4,0,5,0,0,4,4,0,0,0,0,0,0,0,0,0,0],"split_type":[0,0,0,0,0,0,0,0,0,0,0,0,0,0,0,0,0,0,0,0,0,0,0,0,0,0,0,0,0,0,0,0,0,0,0,0,0,0,0,0,0,0,0,0,0,0,0,0,0,0,0],"sum_hessian":[5.7672466E1,1.1578668E1,4.60938E1,5.8218737E0,5.7567945E0,2.8626892E1,1.7466908E1,4.2298665E0,1.592007E0,1.017265E0,4.7395296E0,2.4968369E1,3.6585224E0,5.4067154E0,1.2060193E1,1.9326305E0,2.297236E0,2.3679056E0,2.371624E0,1.7891886E1,7.076483E0,1.0548749E0,2.6036475E0,1.7721359E0,3.6345794E0,1.2668711E0,1.0793322E1,1.2640828E0,1.0331532E0,1.2386318E0,1.1292738E0,1.1825721E0,1.1890517E0,5.477063E0,1.2414824E1,1.2835847E0,5.792898E0,2.179604E0,1.4549756E0,2.2683704E0,8.524951E0,1.6618706E0,3.8151927E0,4.3344283E0,8.080395E0,1.1065241E0,4.686374E0,1.0635813E0,1.2047889E0,3.3945541E0,5.130397E0],"tree_param":{"num_deleted":"0","num_feature":"8","num_nodes":"51","size_leaf_vector":"1"}},{"base_weights":[-1.55050885E-2,-3.4415808E-2,1.2031188E-1,1.8490758E-2,-2.0291121E-1,9.216742E-2,-3.2048625E-1,1.4870366E-1,-3.5744792E-1,-1.0440204E-1,2.2719185E-1,-5.129939E-1,5.7526886E-2,3.9935467E-1,-8.2216255E-2,-5.8415085E-1,6.76139E-4,5.117067E-2,-1.9985597E-1,-1.5230684E-1,3.4777108E-1,-2.508418E-1,6.78125E-2,-3.4256668E-3,1.8299536E-1,-2.5450692E-1,2.423974E-2,-1.0837674E-1,1.0153988E-1,-2.004307E-2,1.3977179E-1,8.777085E-2,-1.3932581E-1,1.8911935E-1,5.807736E-2],"categories":[],"categories_nodes":[],"categories_segments":[],"categories_sizes":[],"default_left":[0,0,0,0,0,0,0,0,0,0,0,0,0,0,0,0,0,0,0,0,0,0,0,0,0,0,0,0,0,0,0,0,0,0,0],"id":20,"left_children":[1,3,-1,5,7,9,11,13,15,17,19,21,-1,23,-1,25,27,29,-1,31,33,-1,-1,-1,-1,-1,-1,-1,-1,-1,-1,-1,-1,-1,-1],"loss_changes":[4.591344E-1,4.9405423E-1,0E0,1.0978044E0,7.7184796E-1,9.7692585E-1,8.7348515E-1,6.1219275E-1,7.702193E-1,1.3720784E0,1.0415815E0,1.6183965E0,0E0,2.998824E-1,0E0,1.0888382E0,6.9375914E-1,6.632006E-1,0E0,9.557545E-1,6.0565805E-1,0E0,0E0,0E0,0E0,0E0,0E0,0E0,0E0,0E0,0E0,0E0,0E0,0E0,0E0],"parents":[2147483647,0,0,1,1,3,3,4,4,5,5,6,6,7,7,8,8,9,9,10,10,11,11,13,13,15,15,16,16,17,17,19,19,20,20],"right_children":[2,4,-1,6,8,10,12,14,16,18,20,22,-1,24,-1,26,28,30,-1,32,34,-1,-1,-1,-1,-1,-1,-1,-1,-1,-1,-1,-1,-1,-1],"split_conditions":[1.954931E0,9.7503537E-1,1.2031188E-1,9.7024876E-1,-2.770154E-1,-2.4419264E-1,6.947459E-1,-4.2693043E-1,4.6596894E-1,-3.4266087E-1,-6.116206E-1,6.720303E-1,5.7526886E-2,-6.879347E-1,-8.2216255E-2,8.3895785E-1,1.7459415E-1,-5.0677454E-1,-1.9985597E-1,5.1212028E-2,-1.0115158E-1,-2.508418E-1,6.78125E-2,-3.4256668E-3,1.8299536E-1,-2.5450692E-1,2.423974E-2,-1.0837674E-1,1.0153988E-1,-2.004307E-2,1.3977179E-1,8.777085E-2,-1.3932581E-1,1.8911935E-1,5.807736E-2],"split_indices":[2,3,0,2,2,2,6,7,6,2,5,1,0,7,0,2,1,2,0,2,5,0,0,0,0,0,0,0,0,0,0,0,0,0,0],"split_type":[0,0,0,0,0,0,0,0,0,0,0,0,0,0,0,0,0,0,0,0,0,0,0,0,0,0,0,0,0,0,0,0,0,0,0],"sum_hessian":[5.5534637E1,5.4000446E1,1.5341893E0,4.1773937E1,1.222651E1,3.491357E1,6.860365E0,3.744486E0,8.482024E0,1.4309092E1,2.0604479E1,4.98534E0,1.8750249E0,2.385496E0,1.3589903E0,4.8075585E0,3.6744654E0,1.1917688E1,2.3914034E0,4.904724E0,1.5699756E1,3.37724E0,1.6081002E0,1.1291659E0,1.2563299E0,3.2431386E0,1.5644202E0,1.7403088E0,1.9341567E0,9.931388E0,1.9863007E0,2.0480738E0,2.8566506E0,4.4513254E0,1.124843E1],"tree_param":{"num_deleted":"0","num_feature":"8","num_nodes":"35","size_leaf_vector":"1"}},{"base_weights":[-1.3387893E-2,-4.385384E-2,2.4625328E-1,1.5983203E-2,-2.1858393E-1,-4.230731E-2,4.3104258E-1,-1.095279E-1,2.120094E-1,-2.2776033E-1,-7.368703E-2,5.3675413E-2,-6.753172E-2,1.9782448E-1,-8.754026E-3,-4.495527E-3,-2.0535599E-1,-1.305429E-2,4.893416E-1,9.040801E-2,-3.5418558E-1,-1.7486058E-1,2.9067224E-1,4.3168318E-1,-3.2225382E-1,7.311092E-1,-3.2935906E-2,-2.6373E-1,3.377066E-1,-4.6777225E-1,3.7765163E-3,1.4005742E-2,-1.15432344E-1,1.8723962E-1,-1.2996623E-2,-1.2007057E-2,2.1570179E-1,7.198313E-2,-1.5306532E-1,1.8850839E-2,2.678199E-1,7.0641205E-2,-1.6358905E-1,1.799019E-1,-2.0445568E-2,-1.9974306E-1,-1.7795028E-2],"categories":[],"categories_nodes":[],"categories_segments":[],"categories_sizes":[],"default_left":[0,0,0,0,0,0,0,0,0,0,0,0,0,0,0,0,0,0,0,0,0,0,0,0,0,0,0,0,0,0,0,0,0,0,0,0,0,0,0,0,0,0,0,0,0,0,0],"id":21,"left_children":[1,3,5,7,9,11,13,15,17,-1,19,-1,-1,-1,-1,21,-1,23,25,27,29,31,33,35,37,39,-1,41,43,45,-1,-1,-1,-1,-1,-1,-1,-1,-1,-1,-1,-1,-1,-1,-1,-1,-1],"loss_changes":[4.4484583E-1,5.2582204E-1,3.335654E-1,9.617414E-1,9.4768643E-1,1.7045882E-1,4.0752864E-1,1.4412222E0,9.570525E-1,0E0,5.480736E-1,0E0,0E0,0E0,0E0,1.1183008E0,0E0,1.4292121E0,1.0723519E0,7.7831507E-1,1.8675566E-1,6.729403E-1,9.3408E-1,6.081744E-1,7.677364E-1,4.850757E-1,0E0,6.6217893E-1,5.801955E-1,2.3076391E-1,0E0,0E0,0E0,0E0,0E0,0E0,0E0,0E0,0E0,0E0,0E0,0E0,0E0,0E0,0E0,0E0,0E0],"parents":[2147483647,0,0,1,1,2,2,3,3,4,4,5,5,6,6,7,7,8,8,10,10,15,15,17,17,18,18,19,19,20,20,21,21,22,22,23,23,24,24,25,25,27,27,28,28,29,29],"right_children":[2,4,6,8,10,12,14,16,18,-1,20,-1,-1,-1,-1,22,-1,24,26,28,30,32,34,36,38,40,-1,42,44,46,-1,-1,-1,-1,-1,-1,-1,-1,-1,-1,-1,-1,-1,-1,-1,-1,-1],"split_conditions":[1.4679282E0,4.3242997E-1,-1.4572442E-1,-9.9634245E-2,5.719225E-1,2.3916112E-1,9.650923E-1,-1.5941675E-1,3.3578208E-1,-2.2776033E-1,1.1199287E0,5.3675413E-2,-6.753172E-2,1.9782448E-1,-8.754026E-3,7.510692E-2,-2.0535599E-1,-3.6960083E-1,9.089057E-1,2.8734636E-1,3.2023523E0,-3.5907224E-1,6.818561E-1,-8.325084E-1,-2.5902502E-2,-2.3669985E-1,-3.2935906E-2,4.1944508E-2,3.5608238E-1,1.9891436E-1,3.7765163E-3,1.4005742E-2,-1.15432344E-1,1.8723962E-1,-1.2996623E-2,-1.2007057E-2,2.1570179E-1,7.198313E-2,-1.5306532E-1,1.8850839E-2,2.678199E-1,7.0641205E-2,-1.6358905E-1,1.799019E-1,-2.0445568E-2,-1.9974306E-1,-1.7795028E-2],"split_indices":[1,4,2,4,4,5,7,4,3,0,4,0,0,0,0,1,0,3,3,1,4,2,0,3,4,5,0,1,7,2,0,0,0,0,0,0,0,0,0,0,0,0,0,0,0,0,0],"split_type":[0,0,0,0,0,0,0,0,0,0,0,0,0,0,0,0,0,0,0,0,0,0,0,0,0,0,0,0,0,0,0,0,0,0,0,0,0,0,0,0,0,0,0,0,0,0,0],"sum_hessian":[5.3871666E1,4.8958088E1,4.913578E0,3.714586E1,1.1812228E1,2.219201E0,2.694377E0,2.2915102E1,1.4230759E1,1.600625E0,1.0211603E1,1.0136701E0,1.205531E0,1.5115143E0,1.1828628E0,2.0227934E1,2.6871684E0,8.381687E0,5.849071E0,6.870163E0,3.3414402E0,1.3083806E1,7.1441274E0,3.2749822E0,5.106705E0,4.0104394E0,1.8386319E0,2.797552E0,4.0726113E0,2.341064E0,1.0003762E0,6.743844E0,6.3399625E0,3.1402311E0,4.003896E0,1.5655205E0,1.7094617E0,1.2102678E0,3.8964376E0,1.051507E0,2.9589324E0,1.0679158E0,1.7296362E0,2.184838E0,1.887773E0,1.1523056E0,1.1887585E0],"tree_param":{"num_deleted":"0","num_feature":"8","num_nodes":"47","size_leaf_vector":"1"}},{"base_weights":[-8.739788E-3,-2.1642575E-1,3.8456E-2,-3.5921726E-1,1.7518467E-1,4.3485844E-1,-1.4945501E-3,-1.9761835E-1,-1.6796727E-2,-6.9891766E-2,1.6527683E-1,2.7456612E-3,1.7572173E-1,3.277882E-2,-1.9882886E-1,-1.18028395E-1,2.0215242E-1,-2.9987288E-1,9.807191E-2,1.901509E-1,-9.207514E-2,3.968728E-2,-2.422315E-1,5.094221E-1,3.216108E-2,-5.9290435E-2,1.3999504E-1,-3.4788381E-3,2.0493591E-1,2.13979E-2,-1.4785801E-1],"categories":[],"categories_nodes":[],"categories_segments":[],"categories_sizes":[],"default_left":[0,0,0,0,0,0,0,0,0,0,0,0,0,0,0,0,0,0,0,0,0,0,0,0,0,0,0,0,0,0,0],"id":22,"left_children":[1,3,5,7,9,11,13,-1,15,-1,-1,-1,-1,17,-1,-1,19,21,23,-1,-1,25,-1,27,29,-1,-1,-1,-1,-1,-1],"loss_changes":[5.2664053E-1,6.1889476E-1,6.9645625E-1,7.69777E-1,6.3885254E-1,2.5323856E-1,9.4892246E-1,0E0,4.570903E-1,0E0,0E0,0E0,0E0,8.9489675E-1,0E0,0E0,9.7597426E-1,1.2013464E0,9.0715456E-1,0E0,0E0,6.0070527E-1,0E0,4.2755222E-1,6.6080004E-1,0E0,0E0,0E0,0E0,0E0,0E0],"parents":[2147483647,0,0,1,1,2,2,3,3,4,4,5,5,6,6,8,8,13,13,16,16,17,17,18,18,21,21,23,23,24,24],"right_children":[2,4,6,8,10,12,14,-1,16,-1,-1,-1,-1,18,-1,-1,20,22,24,-1,-1,26,-1,28,30,-1,-1,-1,-1,-1,-1],"split_conditions":[-6.879347E-1,-2.2433361E-1,-6.0093325E-1,1.3822092E-1,-3.302938E-1,-2.3115574E-1,2.738883E0,-1.9761835E-1,-9.9634245E-2,-6.9891766E-2,1.6527683E-1,2.7456612E-3,1.7572173E-1,-7.9081887E-1,-1.9882886E-1,-1.18028395E-1,4.3242997E-1,-8.561837E-1,-6.719737E-1,1.901509E-1,-9.207514E-2,1.2260966E0,-2.422315E-1,-2.4380313E-2,2.6181192E0,-5.9290435E-2,1.3999504E-1,-3.4788381E-3,2.0493591E-1,2.13979E-2,-1.4785801E-1],"split_indices":[7,0,7,5,6,4,6,0,4,0,0,0,0,6,0,0,4,6,6,0,0,7,0,1,7,0,0,0,0,0,0],"split_type":[0,0,0,0,0,0,0,0,0,0,0,0,0,0,0,0,0,0,0,0,0,0,0,0,0,0,0,0,0,0,0],"sum_hessian":[5.1879288E1,8.942398E0,4.293689E1,6.6136165E0,2.3287814E0,3.0260928E0,3.9910797E1,3.0351088E0,3.5785077E0,1.2983589E0,1.0304224E0,1.0694169E0,1.9566759E0,3.884776E1,1.0630393E0,1.0225863E0,2.5559213E0,5.7844973E0,3.3063263E1,1.2504604E0,1.305461E0,4.018163E0,1.766334E0,3.6368268E0,2.9426435E1,2.927862E0,1.0903013E0,1.1426387E0,2.494188E0,2.818784E1,1.238596E0],"tree_param":{"num_deleted":"0","num_feature":"8","num_nodes":"31","size_leaf_vector":"1"}},{"base_weights":[-1.1726127E-2,-6.709602E-2,1.4897954E-1,-3.9252866E-2,-1.2839828E-1,2.3684043E-1,-9.679528E-2,-9.043659E-2,3.2963338E-1,1.1896091E-1,2.0584857E-1,-4.9029652E-2,-1.5510163E-1,-6.521897E-2,2.188019E-1,-1.0599033E-1,3.132217E-1,1.2404421E-1,-1.4807306E-1,1.0504803E-1,-4.1344187E-1,5.858388E-1,-1.04312256E-1,-5.2720647E-2,1.07488304E-1,-8.0269024E-2,4.947909E-3,-8.533212E-3,-1.7488332E-1,6.1810423E-2,2.0429641E-1],"categories":[],"categories_nodes":[],"categories_segments":[],"categories_sizes":[],"default_left":[0,0,0,0,0,0,0,0,0,0,0,0,0,0,0,0,0,0,0,0,0,0,0,0,0,0,0,0,0,0,0],"id":23,"left_children":[1,3,5,7,-1,9,-1,11,13,15,-1,17,-1,-1,-1,19,21,23,25,-1,27,29,-1,-1,-1,-1,-1,-1,-1,-1,-1],"loss_changes":[4.6850312E-1,3.7522507E-1,6.3643444E-1,7.344457E-1,0E0,5.523225E-1,0E0,5.6737065E-1,1.1998941E0,5.0039864E-1,0E0,5.616412E-1,0E0,0E0,0E0,9.44366E-1,1.2829502E0,9.1122967E-1,4.097553E-1,0E0,2.3560351E-1,2.6401997E-2,0E0,0E0,0E0,0E0,0E0,0E0,0E0,0E0,0E0],"parents":[2147483647,0,0,1,1,2,2,3,3,5,5,7,7,8,8,9,9,11,11,15,15,16,16,17,17,18,18,20,20,21,21],"right_children":[2,4,6,8,-1,10,-1,12,14,16,-1,18,-1,-1,-1,20,22,24,26,-1,28,30,-1,-1,-1,-1,-1,-1,-1,-1,-1],"split_conditions":[8.780909E-1,2.2159412E0,2.6181192E0,1.1031417E0,-1.2839828E-1,9.605087E-1,-9.679528E-2,8.378424E-1,-5.026193E-1,2.0352279E-1,2.0584857E-1,-3.4266087E-1,-1.5510163E-1,-6.521897E-2,2.188019E-1,-3.6960083E-1,3.6866197E-1,-8.35002E-1,3.812627E-2,1.0504803E-1,4.0673104E-1,-6.422624E-1,-1.04312256E-1,-5.2720647E-2,1.07488304E-1,-8.0269024E-2,4.947909E-3,-8.533212E-3,-1.7488332E-1,6.1810423E-2,2.0429641E-1],"split_indices":[7,4,7,1,0,4,0,1,6,3,0,2,0,0,0,3,4,2,6,0,1,6,0,0,0,0,0,0,0,0,0],"split_type":[0,0,0,0,0,0,0,0,0,0,0,0,0,0,0,0,0,0,0,0,0,0,0,0,0,0,0,0,0,0,0],"sum_hessian":[5.0527763E1,3.8013126E1,1.2514636E1,3.631983E1,1.6932957E0,1.0969023E1,1.5456125E0,3.255728E1,3.762551E0,9.691274E0,1.2777495E0,3.069287E1,1.8644109E0,1.7810928E0,1.9814583E0,4.7014513E0,4.9898224E0,1.1079509E1,1.9613361E1,1.8370302E0,2.864421E0,3.6131148E0,1.3767078E0,4.969556E0,6.109953E0,1.1000268E1,8.613092E0,1.2325929E0,1.6318281E0,1.3579632E0,2.2551515E0],"tree_param":{"num_deleted":"0","num_feature":"8","num_nodes":"31","size_leaf_vector":"1"}},{"base_weights":[-6.587896E-3,-1.6337919E-1,3.6531895E-2,-3.36182E-1,4.0206637E-2,2.1782464E-1,-1.1178506E-2,-9.576763E-2,-2.0735343E-1,-1.13047704E-1,2.1889341E-1,-5.7089936E-2,3.2924262E-1,-3.1147826E-1,5.7555296E-2,-1.2734461E-1,5.9925426E-2,-1.8239258E-2,3.295393E-1,4.8146355E-1,-8.292012E-2,9.262256E-2,-5.2617747E-1,1.1188356E-2,1.496637E-1,1.0698285E-2,1.307985E-1,2.7516222E-2,1.9547719E-1,-6.401654E-1,-3.102385E-2,9.790935E-2,-2.0135814E-1,-4.793042E-2,-2.3372696E-1,-1.9926503E-2,1.07325315E-1,-1.7240053E-1,3.512025E-2],"categories":[],"categories_nodes":[],"categories_segments":[],"categories_sizes":[],"default_left":[0,0,0,0,0,0,0,0,0,0,0,0,0,0,0,0,0,0,0,0,0,0,0,0,0,0,0,0,0,0,0,0,0,0,0,0,0,0,0],"id":24,"left_children":[1,3,5,7,9,11,13,15,-1,-1,17,-1,19,21,23,-1,-1,-1,25,27,-1,-1,29,31,-1,-1,-1,-1,-1,33,-1,35,37,-1,-1,-1,-1,-1,-1],"loss_changes":[3.4551513E-1,4.0104553E-1,3.5020953E-1,4.514357E-1,5.2590436E-1,4.4578576E-1,6.9456536E-1,5.488301E-1,0E0,0E0,1.6852307E-1,0E0,7.770307E-1,9.962611E-1,5.575556E-1,0E0,0E0,0E0,9.688535E-2,3.3453643E-1,0E0,0E0,1.7577386E-1,4.975984E-1,0E0,0E0,0E0,0E0,0E0,1.266154E-1,0E0,8.387535E-1,9.992376E-1,0E0,0E0,0E0,0E0,0E0,0E0],"parents":[2147483647,0,0,1,1,2,2,3,3,4,4,5,5,6,6,7,7,10,10,12,12,13,13,14,14,18,18,19,19,22,22,23,23,29,29,31,31,32,32],"right_children":[2,4,6,8,10,12,14,16,-1,-1,18,-1,20,22,24,-1,-1,-1,26,28,-1,-1,30,32,-1,-1,-1,-1,-1,34,-1,36,38,-1,-1,-1,-1,-1,-1],"split_conditions":[-4.8865408E-1,-4.7256194E-2,-1.2386755E-1,-7.8924745E-2,-7.8924745E-2,-6.868293E-1,7.510692E-2,-6.0093325E-1,-2.0735343E-1,-1.13047704E-1,-8.2027817E-1,-5.7089936E-2,1.0523056E0,-6.244356E-1,1.7024615E0,-1.2734461E-1,5.9925426E-2,-1.8239258E-2,-5.41244E-1,-2.2433361E-1,-8.292012E-2,9.262256E-2,9.745826E-1,3.53066E-1,1.496637E-1,1.0698285E-2,1.307985E-1,2.7516222E-2,1.9547719E-1,-5.888314E-1,-3.102385E-2,-4.5805237E-1,7.125727E-1,-4.793042E-2,-2.3372696E-1,-1.9926503E-2,1.07325315E-1,-1.7240053E-1,3.512025E-2],"split_indices":[1,2,1,7,7,6,1,7,0,0,1,0,2,6,3,0,0,0,6,0,0,0,5,6,0,0,0,0,0,2,0,6,6,0,0,0,0,0,0],"split_type":[0,0,0,0,0,0,0,0,0,0,0,0,0,0,0,0,0,0,0,0,0,0,0,0,0,0,0,0,0,0,0,0,0,0,0,0,0,0,0],"sum_hessian":[4.9222782E1,1.0015536E1,3.9207245E1,5.0650444E0,4.9504924E0,7.4255714E0,3.1781675E1,3.7769485E0,1.2880957E0,1.1523025E0,3.7981899E0,1.4406146E0,5.9849567E0,5.261665E0,2.652001E1,1.5814552E0,2.1954932E0,1.2043508E0,2.593839E0,4.9467015E0,1.0382553E0,1.2403986E0,4.0212665E0,2.49265E1,1.5935096E0,1.0447415E0,1.5490975E0,1.9708427E0,2.975859E0,2.762257E0,1.2590094E0,1.808642E1,6.8400807E0,1.1019111E0,1.6603459E0,1.1535457E1,6.5509634E0,2.7782485E0,4.0618324E0],"tree_param":{"num_deleted":"0","num_feature":"8","num_nodes":"39","size_leaf_vector":"1"}},{"base_weights":[-1.151205E-2,-1.0463344E-1,6.431436E-2,-1.7181786E-2,-1.7750633E-1,4.213621E-1,-2.251012E-2,-2.867852E-1,1.0274978E-1,-2.291738E-2,5.6276566E-1,-7.906696E-2,2.5761682E-1,-5.8333367E-2,-1.600357E-1,-8.8128746E-2,1.5421069E-1,2.1637018E-1,2.0800853E-2,1.5064718E-1,-1.5638237E-1,-4.927673E-2,1.6424765E-1,-1.5414427E-1,2.2297813E-1,1.6962692E-1,7.370132E-2,-2.0573613E-1,4.7224605E-1,-6.762129E-2,-1.4195678E-1,-1.5511257E-2,1.284411E-1,4.788218E-2,-7.4836306E-2,-1.1739789E-1,2.4772799E-2,2.4745086E-2,1.8365082E-1,5.2546043E-2,-6.891374E-2],"categories":[],"categories_nodes":[],"categories_segments":[],"categories_sizes":[],"default_left":[0,0,0,0,0,0,0,0,0,0,0,0,0,0,0,0,0,0,0,0,0,0,0,0,0,0,0,0,0,0,0,0,0,0,0,0,0,0,0,0,0],"id":25,"left_children":[1,3,5,7,-1,9,11,13,15,-1,17,19,21,23,-1,-1,25,-1,-1,27,29,-1,-1,-1,31,-1,33,35,37,39,-1,-1,-1,-1,-1,-1,-1,-1,-1,-1,-1],"loss_changes":[3.5218513E-1,9.4131553E-1,8.646487E-1,6.751139E-1,0E0,4.2634624E-1,3.8696027E-1,3.3018696E-1,3.4232378E-1,0E0,2.9100466E-1,3.7907133E-1,5.939802E-1,6.849483E-1,0E0,0E0,4.0659004E-1,0E0,0E0,7.332571E-1,4.0293947E-1,0E0,0E0,0E0,2.1651407E-1,0E0,3.8607797E-1,2.1045114E-1,1.2515986E-1,5.615959E-1,0E0,0E0,0E0,0E0,0E0,0E0,0E0,0E0,0E0,0E0,0E0],"parents":[2147483647,0,0,1,1,2,2,3,3,5,5,6,6,7,7,8,8,10,10,11,11,12,12,13,13,16,16,19,19,20,20,24,24,26,26,27,27,28,28,29,29],"right_children":[2,4,6,8,-1,10,12,14,16,-1,18,20,22,24,-1,-1,26,-1,-1,28,30,-1,-1,-1,32,-1,34,36,38,40,-1,-1,-1,-1,-1,-1,-1,-1,-1,-1,-1],"split_conditions":[-9.9634245E-2,-1.5941675E-1,4.5836493E-2,-5.549789E-1,-1.7750633E-1,-2.5292757E-1,1.3927635E0,-5.300682E-1,-8.619375E-1,-2.291738E-2,9.839194E-1,-3.6960083E-1,-5.139319E-1,-7.7119094E-1,-1.600357E-1,-8.8128746E-2,-8.284601E-1,2.1637018E-1,2.0800853E-2,-5.2390337E-1,1.0304835E0,-4.927673E-2,1.6424765E-1,-1.5414427E-1,1.8147957E-1,1.6962692E-1,6.442367E-1,1.7776936E-1,2.6908094E-1,-2.5292757E-1,-1.4195678E-1,-1.5511257E-2,1.284411E-1,4.788218E-2,-7.4836306E-2,-1.1739789E-1,2.4772799E-2,2.4745086E-2,1.8365082E-1,5.2546043E-2,-6.891374E-2],"split_indices":[4,4,4,1,0,7,5,4,7,0,0,3,7,4,0,0,0,0,0,3,6,0,0,0,3,0,6,6,7,7,0,0,0,0,0,0,0,0,0,0,0],"split_type":[0,0,0,0,0,0,0,0,0,0,0,0,0,0,0,0,0,0,0,0,0,0,0,0,0,0,0,0,0,0,0,0,0,0,0,0,0,0,0,0,0],"sum_hessian":[4.792405E1,2.1338552E1,2.6585497E1,1.8968071E1,2.3704815E0,4.446627E0,2.213887E1,5.4116244E0,1.3556446E1,1.0854632E0,3.361164E0,1.9017115E1,3.121756E0,3.4514947E0,1.9601297E0,1.0164123E0,1.2540034E1,2.1946588E0,1.1665053E0,4.5499988E0,1.4467115E1,1.4478999E0,1.6738561E0,1.0022395E0,2.4492552E0,1.0670191E0,1.1473015E1,2.3291721E0,2.2208266E0,1.2248774E1,2.2183423E0,1.366996E0,1.0822592E0,9.463411E0,2.0096037E0,1.1996448E0,1.1295273E0,1.0065448E0,1.2142818E0,4.871627E0,7.3771467E0],"tree_param":{"num_deleted":"0","num_feature":"8","num_nodes":"41","size_leaf_vector":"1"}},{"base_weights":[-9.026313E-3,-3.762631E-2,2.3616342E-1,-5.7898022E-2,1.03060685E-1,-6.70898E-3,3.9909557E-1,-1.2591693E-1,5.5339813E-2,1.7157161E-1,8.1079425E-3,6.199887E-2,-3.1000185E-1,1.8998931E-1,-5.850376E-2,-6.1480317E-2,1.5741554E-1,2.3428991E-2,-3.813098E-1,-1.9943464E-1,4.6510702E-1,-7.204675E-2,8.140238E-2,-9.552046E-4,-1.600005E-1,7.199912E-2,-8.526308E-2,3.544927E-2,1.6825762E-1],"categories":[],"categories_nodes":[],"categories_segments":[],"categories_sizes":[],"default_left":[0,0,0,0,0,0,0,0,0,0,0,0,0,0,0,0,0,0,0,0,0,0,0,0,0,0,0,0,0],"id":26,"left_children":[1,3,5,7,-1,-1,9,11,13,-1,-1,15,17,-1,19,21,-1,-1,23,25,27,-1,-1,-1,-1,-1,-1,-1,-1],"loss_changes":[3.4452906E-1,3.577581E-1,2.2531971E-1,3.3334917E-1,0E0,0E0,1.9057238E-1,9.4554305E-1,1.1290286E0,0E0,0E0,8.3699787E-1,4.087435E-1,0E0,1.1834595E0,7.795325E-1,0E0,0E0,6.730646E-1,5.2813286E-1,4.7827125E-2,0E0,0E0,0E0,0E0,0E0,0E0,0E0,0E0],"parents":[2147483647,0,0,1,1,2,2,3,3,6,6,7,7,8,8,11,11,12,12,14,14,15,15,18,18,19,19,20,20],"right_children":[2,4,6,8,-1,-1,10,12,14,-1,-1,16,18,-1,20,22,-1,-1,24,26,28,-1,-1,-1,-1,-1,-1,-1,-1],"split_conditions":[1.4679282E0,1.954931E0,-1.4572442E-1,1.3320242E-1,1.03060685E-1,-6.70898E-3,9.650923E-1,1.4968026E-1,2.60961E-1,1.7157161E-1,8.1079425E-3,-4.7256194E-2,-4.577737E-1,1.8998931E-1,1.2859826E0,2.4091898E-1,1.5741554E-1,2.3428991E-2,-1.9019237E-1,-7.222923E-1,3.3578208E-1,-7.204675E-2,8.140238E-2,-9.552046E-4,-1.600005E-1,7.199912E-2,-8.526308E-2,3.544927E-2,1.6825762E-1],"split_indices":[1,2,2,6,0,0,7,2,6,0,0,2,3,0,0,1,0,0,1,3,3,0,0,0,0,0,0,0,0],"split_type":[0,0,0,0,0,0,0,0,0,0,0,0,0,0,0,0,0,0,0,0,0,0,0,0,0,0,0,0,0],"sum_hessian":[4.6864048E1,4.2726757E1,4.1372933E0,4.13744E1,1.3523543E0,1.9329692E0,2.204324E0,2.577818E1,1.5596223E1,1.1384633E0,1.0658607E0,1.3084545E1,1.2693634E1,1.8156592E0,1.3780563E1,1.1012842E1,2.071703E0,1.9554977E0,1.0738136E1,1.1345906E1,2.4346569E0,7.347016E0,3.665826E0,3.3720136E0,7.3661227E0,1.5387704E0,9.807137E0,1.0098125E0,1.4248443E0],"tree_param":{"num_deleted":"0","num_feature":"8","num_nodes":"29","size_leaf_vector":"1"}},{"base_weights":[8.41186E-3,-2.2568749E-1,3.6892038E-2,-4.0541646E-1,2.4140274E-2,-1.9104013E-1,8.439679E-2,-8.249376E-3,-1.7842424E-1,-1.3649438E-1,-1.8057687E-4,4.254284E-1,4.5399815E-2,-1.1461322E-1,1.8590178E-1,3.675905E-2,1.5541533E-1,-3.548305E-1,8.6037636E-2,1.5001287E-1,-1.0637171E-1,5.0330226E-4,-1.5426192E-1,-2.1849939E-1,1.3984257E-1,6.625692E-2,-1.11737415E-1,2.9741472E-2,-1.9933976E-1,1.5335155E-1,2.2196002E-2],"categories":[],"categories_nodes":[],"categories_segments":[],"categories_sizes":[],"default_left":[0,0,0,0,0,0,0,0,0,0,0,0,0,0,0,0,0,0,0,0,0,0,0,0,0,0,0,0,0,0,0],"id":27,"left_children":[1,3,5,7,-1,9,11,-1,-1,-1,13,15,17,-1,19,-1,-1,21,23,-1,25,-1,-1,27,29,-1,-1,-1,-1,-1,-1],"loss_changes":[3.202917E-1,3.1961152E-1,4.771253E-1,2.3063928E-1,0E0,3.8526356E-1,4.5847416E-1,0E0,0E0,0E0,4.5755762E-1,3.6599696E-2,5.730956E-1,0E0,4.507602E-1,0E0,0E0,1.8666467E-1,5.399657E-1,0E0,3.493688E-1,0E0,0E0,7.8240246E-1,6.23194E-1,0E0,0E0,0E0,0E0,0E0,0E0],"parents":[2147483647,0,0,1,1,2,2,3,3,5,5,6,6,10,10,11,11,12,12,14,14,17,17,18,18,20,20,23,23,24,24],"right_children":[2,4,6,8,-1,10,12,-1,-1,-1,14,16,18,-1,20,-1,-1,22,24,-1,26,-1,-1,28,30,-1,-1,-1,-1,-1,-1],"split_conditions":[-8.567611E-1,5.3938067E-1,-6.879347E-1,-1.2172619E0,2.4140274E-2,8.05408E-2,-6.0093325E-1,-8.249376E-3,-1.7842424E-1,-1.3649438E-1,-9.9634245E-2,-5.7542726E-2,-5.139319E-1,-1.1461322E-1,4.3242997E-1,3.675905E-2,1.5541533E-1,-2.2335479E-1,-7.9081887E-1,1.5001287E-1,-2.8275573E-1,5.0330226E-4,-1.5426192E-1,-8.561837E-1,-6.719737E-1,6.625692E-2,-1.11737415E-1,2.9741472E-2,-1.9933976E-1,1.5335155E-1,2.2196002E-2],"split_indices":[5,1,7,5,0,5,7,0,0,0,4,1,7,0,4,0,0,1,6,0,6,0,0,6,6,0,0,0,0,0,0],"split_type":[0,0,0,0,0,0,0,0,0,0,0,0,0,0,0,0,0,0,0,0,0,0,0,0,0,0,0,0,0,0,0],"sum_hessian":[4.579116E1,4.215611E0,4.157555E1,2.451962E0,1.7636486E0,6.649438E0,3.4926113E1,1.2006378E0,1.2513243E0,2.2097306E0,4.439707E0,2.5671256E0,3.2358986E1,1.1095941E0,3.3301127E0,1.1451403E0,1.4219854E0,2.2700803E0,3.0088907E1,1.2623942E0,2.0677185E0,1.0069981E0,1.2630823E0,4.058238E0,2.6030668E1,1.0035515E0,1.064167E0,2.8243253E0,1.2339128E0,2.902562E0,2.3128107E1],"tree_param":{"num_deleted":"0","num_feature":"8","num_nodes":"31","size_leaf_vector":"1"}},{"base_weights":[-5.492589E-4,-3.2705158E-2,2.1287774E-1,4.085674E-3,-4.7283322E-1,4.305233E-1,-4.0788885E-2,6.461483E-2,-1.7007709E-1,-5.585613E-4,-2.1156937E-1,3.0987037E-2,1.5977055E-1,-9.048342E-2,6.648242E-2,-1.4233352E-2,4.4400322E-1,-1.6498196E-1,2.9163716E-2,-4.5946673E-1,5.1564597E-2,1.02941655E-1,1.9495675E-1,-1.12543516E-1,1.1660028E-1,-1.8337667E-1,-3.1413563E-2,-4.8534427E-2,3.8197815E-2,-2.8965222E-2,7.813549E-2,-1.3589631E-1,1.4202953E-2],"categories":[],"categories_nodes":[],"categories_segments":[],"categories_sizes":[],"default_left":[0,0,0,0,0,0,0,0,0,0,0,0,0,0,0,0,0,0,0,0,0,0,0,0,0,0,0,0,0,0,0,0,0],"id":28,"left_children":[1,3,5,7,9,11,13,15,17,-1,-1,-1,-1,-1,-1,19,21,-1,23,25,27,29,-1,31,-1,-1,-1,-1,-1,-1,-1,-1,-1],"loss_changes":[3.215938E-1,6.611203E-1,3.5632494E-1,4.1748694E-1,3.43351E-1,5.8158815E-2,3.232787E-1,8.8399196E-1,7.8955376E-1,0E0,0E0,0E0,0E0,0E0,0E0,7.637024E-1,2.8972757E-1,0E0,4.3365166E-1,1.1656177E-1,3.9085335E-1,1.2255822E-1,0E0,3.6247587E-1,0E0,0E0,0E0,0E0,0E0,0E0,0E0,0E0,0E0],"parents":[2147483647,0,0,1,1,2,2,3,3,4,4,5,5,6,6,7,7,8,8,15,15,16,16,18,18,19,19,20,20,21,21,23,23],"right_children":[2,4,6,8,10,12,14,16,18,-1,-1,-1,-1,-1,-1,20,22,-1,24,26,28,30,-1,32,-1,-1,-1,-1,-1,-1,-1,-1,-1],"split_conditions":[1.2341431E0,1.0322627E0,1.7532642E0,4.0253872E-1,4.3031538E-1,-5.263969E-1,-5.139319E-1,1.6739424E-1,2.8734636E-1,-5.585613E-4,-2.1156937E-1,3.0987037E-2,1.5977055E-1,-9.048342E-2,6.648242E-2,-9.991157E-1,8.269321E-2,-1.6498196E-1,7.4386215E-1,-1.9343977E-1,-4.8865408E-1,3.7979287E-1,1.9495675E-1,6.994584E-1,1.1660028E-1,-1.8337667E-1,-3.1413563E-2,-4.8534427E-2,3.8197815E-2,-2.8965222E-2,7.813549E-2,-1.3589631E-1,1.4202953E-2],"split_indices":[5,5,5,4,6,0,7,4,1,0,0,0,0,0,0,2,6,0,5,5,1,0,0,4,0,0,0,0,0,0,0,0,0],"split_type":[0,0,0,0,0,0,0,0,0,0,0,0,0,0,0,0,0,0,0,0,0,0,0,0,0,0,0,0,0,0,0,0,0],"sum_hessian":[4.4845036E1,3.970905E1,5.1359878E0,3.7560074E1,2.148975E0,2.389015E0,2.7469726E0,2.8339767E1,9.220307E0,1.0430896E0,1.1058851E0,1.0462272E0,1.3427879E0,1.3026708E0,1.4443018E0,2.426025E1,4.0795174E0,2.5666606E0,6.653647E0,2.353292E0,2.1906958E1,2.1000984E0,1.9794191E0,5.265191E0,1.388456E0,1.1417398E0,1.211552E0,5.443245E0,1.6463713E1,1.0973195E0,1.0027788E0,1.0967401E0,4.168451E0],"tree_param":{"num_deleted":"0","num_feature":"8","num_nodes":"33","size_leaf_vector":"1"}},{"base_weights":[-5.188817E-3,-8.620915E-2,1.4107092E-2,-1.1505935E-1,3.819077E-2,3.2189533E-1,8.872659E-3,4.826081E-3,1.6837269E-1,-2.7165493E-1,5.05701E-2,2.406069E-3,-1.8909921E-1,-1.3300849E-2,2.1629795E-1,-8.948872E-2,6.617173E-2,-1.2694892E-1,9.342692E-3,1.08953595E-1,-6.2318906E-2],"categories":[],"categories_nodes":[],"categories_segments":[],"categories_sizes":[],"default_left":[0,0,0,0,0,0,0,0,0,0,0,0,0,0,0,0,0,0,0,0,0],"id":29,"left_children":[1,-1,3,-1,5,7,9,-1,-1,11,13,15,-1,17,19,-1,-1,-1,-1,-1,-1],"loss_changes":[2.479023E-1,0E0,4.2521542E-1,0E0,3.409399E-1,2.7225485E-1,4.6396813E-1,0E0,0E0,5.065526E-1,3.6650413E-1,3.22212E-1,0E0,4.8201358E-1,6.742334E-1,0E0,0E0,0E0,0E0,0E0,0E0],"parents":[2147483647,0,0,2,2,4,4,5,5,6,6,9,9,10,10,11,11,13,13,14,14],"right_children":[2,-1,4,-1,6,8,10,-1,-1,12,14,16,-1,18,20,-1,-1,-1,-1,-1,-1],"split_conditions":[-7.8314745E-1,-8.620915E-2,-1.1595818E0,-1.1505935E-1,-5.8387244E-1,-6.4365494E-1,-4.304307E-1,4.826081E-3,1.6837269E-1,1.9891436E-1,8.780909E-1,-5.599595E-1,-1.8909921E-1,-8.680682E-1,2.0961108E0,-8.948872E-2,6.617173E-2,-1.2694892E-1,9.342692E-3,1.08953595E-1,-6.2318906E-2],"split_indices":[4,0,5,0,4,4,4,0,0,2,7,4,0,6,7,0,0,0,0,0,0],"split_type":[0,0,0,0,0,0,0,0,0,0,0,0,0,0,0,0,0,0,0,0,0],"sum_hessian":[4.3785362E1,1.9133204E0,4.1872044E1,1.5388938E0,4.033315E1,2.8429713E0,3.7490177E1,1.7167407E0,1.1262306E0,4.137751E0,3.335243E1,2.9086041E0,1.2291471E0,2.4738165E1,8.614262E0,1.0685376E0,1.8400664E0,1.5864267E0,2.315174E1,6.5046067E0,2.1096554E0],"tree_param":{"num_deleted":"0","num_feature":"8","num_nodes":"21","size_leaf_vector":"1"}},{"base_weights":[-1.10056875E-2,-3.5133466E-2,1.9631505E-1,7.376855E-3,-1.6184103E-1,3.3225563E-1,-2.7129328E-2,-2.8985327E-2,3.1204146E-1,-1.5842731E-1,-1.148749E-2,1.7443458E-2,1.4690623E-1,2.547633E-2,-2.3294266E-1,1.6295059E-1,-3.568963E-2,-2.2859307E-1,2.3668577E-1,-1.1493411E-1,2.3498188E-1,4.4200636E-2,-1.9122116E-1,-4.086035E-1,2.8177785E-2,1.415888E-1,-6.336126E-2,5.4366928E-2,-7.7830955E-2,1.6739607E-2,1.9849095E-1,-7.331346E-2,1.1341937E-1,-3.952663E-2,-1.5417123E-1],"categories":[],"categories_nodes":[],"categories_segments":[],"categories_sizes":[],"default_left":[0,0,0,0,0,0,0,0,0,0,0,0,0,0,0,0,0,0,0,0,0,0,0,0,0,0,0,0,0,0,0,0,0,0,0],"id":30,"left_children":[1,3,5,7,9,11,-1,13,15,-1,17,-1,-1,19,21,-1,-1,23,25,27,29,31,-1,33,-1,-1,-1,-1,-1,-1,-1,-1,-1,-1,-1],"loss_changes":[2.2749572E-1,2.1854112E-1,2.1516918E-1,3.543628E-1,5.545428E-1,1.19790465E-1,0E0,3.2542053E-1,4.0417373E-1,0E0,4.980622E-1,0E0,0E0,7.213012E-1,7.18693E-1,0E0,0E0,3.2307032E-1,5.566105E-1,6.805068E-1,7.12224E-1,5.346757E-1,0E0,2.9485285E-2,0E0,0E0,0E0,0E0,0E0,0E0,0E0,0E0,0E0,0E0,0E0],"parents":[2147483647,0,0,1,1,2,2,3,3,4,4,5,5,7,7,8,8,10,10,13,13,14,14,17,17,18,18,19,19,20,20,21,21,23,23],"right_children":[2,4,6,8,10,12,-1,14,16,-1,18,-1,-1,20,22,-1,-1,24,26,28,30,32,-1,34,-1,-1,-1,-1,-1,-1,-1,-1,-1,-1,-1],"split_conditions":[1.4679282E0,4.3242997E-1,2.2969885E0,2.929375E-1,6.197485E-1,4.4040096E-1,-2.7129328E-2,9.7503537E-1,2.4091898E-1,-1.5842731E-1,4.5546156E-1,1.7443458E-2,1.4690623E-1,2.0352279E-1,-1.7535874E-1,1.6295059E-1,-3.568963E-2,7.0408803E-1,1.0036545E0,-3.5907224E-1,-5.9750043E-3,-4.0452498E-1,-1.9122116E-1,1.09380856E-1,2.8177785E-2,1.415888E-1,-6.336126E-2,5.4366928E-2,-7.7830955E-2,1.6739607E-2,1.9849095E-1,-7.331346E-2,1.1341937E-1,-3.952663E-2,-1.5417123E-1],"split_indices":[1,4,1,4,4,4,0,3,1,0,5,0,0,3,4,0,0,7,1,2,4,4,0,5,0,0,0,0,0,0,0,0,0,0,0],"split_type":[0,0,0,0,0,0,0,0,0,0,0,0,0,0,0,0,0,0,0,0,0,0,0,0,0,0,0,0,0,0,0,0,0,0,0],"sum_hessian":[4.3100388E1,3.9351265E1,3.7491245E0,3.0170767E1,9.180496E0,2.4356987E0,1.3134258E0,2.776217E1,2.4085958E0,1.9407196E0,7.239776E0,1.3881204E0,1.0475783E0,2.2601974E1,5.1601973E0,1.3984475E0,1.0101483E0,3.9036787E0,3.3360977E0,1.3802772E1,8.799203E0,3.590587E0,1.5696105E0,2.3340445E0,1.5696342E0,2.1519368E0,1.184161E0,4.442915E0,9.359857E0,6.9930825E0,1.8061204E0,2.0696733E0,1.5209136E0,1.2634671E0,1.0705774E0],"tree_param":{"num_deleted":"0","num_feature":"8","num_nodes":"35","size_leaf_vector":"1"}},{"base_weights":[-6.3833403E-3,9.973061E-3,-1.0393501E-1,-1.8983213E-2,2.853951E-1,-5.7104867E-2,1.0240329E-1,7.885612E-3,1.2776661E-1,-2.0564752E-2,-1.2497207E-1,2.287447E-1,-2.0211019E-1,4.8313573E-2,-2.6033527E-1,-2.2885004E-2,3.4358695E-1,4.4102125E-2,-1.3060704E-1,5.012936E-2,-3.8374063E-2,-1.475807E-1,2.152602E-2,1.5012975E-1,1.9354371E-2],"categories":[],"categories_nodes":[],"categories_segments":[],"categories_sizes":[],"default_left":[0,0,0,0,0,0,0,0,0,0,0,0,0,0,0,0,0,0,0,0,0,0,0,0,0],"id":31,"left_children":[1,3,-1,5,7,9,11,-1,-1,13,-1,15,17,19,21,-1,23,-1,-1,-1,-1,-1,-1,-1,-1],"loss_changes":[2.4269459E-1,3.4045056E-1,0E0,1.8608953E-1,1.3655972E-1,3.8920847E-1,4.1814637E-1,0E0,0E0,4.8393512E-1,0E0,2.8197834E-1,3.380628E-1,5.031553E-1,5.372099E-1,0E0,2.078442E-1,0E0,0E0,0E0,0E0,0E0,0E0,0E0,0E0],"parents":[2147483647,0,0,1,1,3,3,4,4,5,5,6,6,9,9,11,11,12,12,13,13,14,14,16,16],"right_children":[2,4,-1,6,8,10,12,-1,-1,14,-1,16,18,20,22,-1,24,-1,-1,-1,-1,-1,-1,-1,-1],"split_conditions":[2.8874395E0,1.4679282E0,-1.0393501E-1,8.780909E-1,-1.4572442E-1,1.3092399E0,1.9221079E0,7.885612E-3,1.2776661E-1,3.5608238E-1,-1.2497207E-1,-7.8487664E-1,3.7979287E-1,4.0191174E-1,3.798685E-1,-2.2885004E-2,1.313098E0,4.4102125E-2,-1.3060704E-1,5.012936E-2,-3.8374063E-2,-1.475807E-1,2.152602E-2,1.5012975E-1,1.9354371E-2],"split_indices":[6,1,0,7,2,4,7,0,0,7,0,6,0,3,3,0,7,0,0,0,0,0,0,0,0],"split_type":[0,0,0,0,0,0,0,0,0,0,0,0,0,0,0,0,0,0,0,0,0,0,0,0,0],"sum_hessian":[4.2011135E1,4.1009357E1,1.0017797E0,3.795053E1,3.058823E0,2.9283545E1,8.666988E0,1.4927905E0,1.5660326E0,2.7541183E1,1.7423617E0,6.3013873E0,2.3656008E0,2.2015377E1,5.525806E0,1.8153808E0,4.4860067E0,1.0955484E0,1.2700524E0,1.3181983E1,8.833393E0,2.97187E0,2.553936E0,2.364116E0,2.1218905E0],"tree_param":{"num_deleted":"0","num_feature":"8","num_nodes":"25","size_leaf_vector":"1"}},{"base_weights":[-8.118756E-3,-1.3057286E-1,3.9050166E-2,-3.870971E-1,-1.8980464E-2,1.2297404E-1,-4.7684256E-3,-2.5763942E-2,-1.4238569E-1,1.05931304E-1,-2.0980667E-1,-9.221113E-2,1.0873715E-1,2.3873298E-1,-6.001864E-2,-1.11321524E-1,2.5339583E-2,3.4276128E-2,-5.373317E-1,2.3093781E-1,-1.6109188E-1,-5.2049812E-2,3.9108253E-1,-7.126421E-2,4.285302E-1,-2.0016499E-1,-3.9452765E-2,-6.004688E-2,4.0138164E-1,6.675752E-2,-3.4090915E-1,3.6893874E-2,1.5623595E-1,4.133875E-2,-7.1118586E-2,1.5413363E-1,4.168152E-2,9.351499E-2,-1.0202454E-1,-8.882417E-3,1.5309519E-1,-1.566216E-1,5.8657643E-3],"categories":[],"categories_nodes":[],"categories_segments":[],"categories_sizes":[],"default_left":[0,0,0,0,0,0,0,0,0,0,0,0,0,0,0,0,0,0,0,0,0,0,0,0,0,0,0,0,0,0,0,0,0,0,0,0,0,0,0,0,0,0,0],"id":32,"left_children":[1,3,5,7,9,-1,11,-1,-1,13,15,17,19,21,-1,-1,-1,23,25,27,29,-1,31,33,35,-1,-1,37,39,-1,41,-1,-1,-1,-1,-1,-1,-1,-1,-1,-1,-1,-1],"loss_changes":[2.5010884E-1,3.369099E-1,5.1210403E-1,5.3989887E-2,2.4704866E-1,0E0,2.9849154E-1,0E0,0E0,3.064115E-1,2.243429E-1,9.73176E-1,4.6934965E-1,3.7524694E-1,0E0,0E0,0E0,6.1912245E-1,1.1320937E-1,4.918766E-1,3.9830452E-1,0E0,7.0914805E-2,4.4915116E-1,5.8783293E-3,0E0,0E0,5.5926293E-1,3.0046594E-1,0E0,2.4382815E-1,0E0,0E0,0E0,0E0,0E0,0E0,0E0,0E0,0E0,0E0,0E0,0E0],"parents":[2147483647,0,0,1,1,2,2,3,3,4,4,6,6,9,9,10,10,11,11,12,12,13,13,17,17,18,18,19,19,20,20,22,22,23,23,24,24,27,27,28,28,30,30],"right_children":[2,4,6,8,10,-1,12,-1,-1,14,16,18,20,22,-1,-1,-1,24,26,28,30,-1,32,34,36,-1,-1,38,40,-1,42,-1,-1,-1,-1,-1,-1,-1,-1,-1,-1,-1,-1],"split_conditions":[-3.22842E-1,-5.263969E-1,-1.9019237E-1,-5.300682E-1,3.5608238E-1,1.2297404E-1,2.6800117E-1,-2.5763942E-2,-1.4238569E-1,7.42284E-1,1.5880458E0,1.09380856E-1,6.4720786E-1,-8.35002E-1,-6.001864E-2,-1.11321524E-1,2.5339583E-2,-3.481944E-2,1.5543774E-1,2.7408138E-1,-5.263969E-1,-5.2049812E-2,-3.39929E-1,-2.5938475E-1,3.6693615E-1,-2.0016499E-1,-3.9452765E-2,-5.263969E-1,-6.8980044E-1,6.675752E-2,-7.8924745E-2,3.6893874E-2,1.5623595E-1,4.133875E-2,-7.1118586E-2,1.5413363E-1,4.168152E-2,9.351499E-2,-1.0202454E-1,-8.882417E-3,1.5309519E-1,-1.566216E-1,5.8657643E-3],"split_indices":[1,0,1,4,7,0,5,0,0,6,0,5,6,2,0,0,0,5,4,1,0,0,7,3,1,0,0,0,6,0,7,0,0,0,0,0,0,0,0,0,0,0,0],"split_type":[0,0,0,0,0,0,0,0,0,0,0,0,0,0,0,0,0,0,0,0,0,0,0,0,0,0,0,0,0,0,0,0,0,0,0,0,0,0,0,0,0,0,0],"sum_hessian":[4.141841E1,1.1025968E1,3.0392445E1,2.5940402E0,8.431928E0,2.3286748E0,2.806377E1,1.0300912E0,1.5639489E0,5.3649793E0,3.0669484E0,1.5957782E1,1.21059885E1,3.8945484E0,1.4704306E0,1.8126235E0,1.2543249E0,1.3145344E1,2.8124382E0,8.431602E0,3.674386E0,1.013463E0,2.8810854E0,1.1015719E1,2.129624E0,1.6426065E0,1.1698316E0,3.3537407E0,5.0778613E0,1.0968634E0,2.5775228E0,1.574562E0,1.3065234E0,4.9468985E0,6.068821E0,1.0472049E0,1.0824192E0,1.3922751E0,1.9614655E0,1.1714354E0,3.906426E0,1.4170109E0,1.1605119E0],"tree_param":{"num_deleted":"0","num_feature":"8","num_nodes":"43","size_leaf_vector":"1"}},{"base_weights":[-7.768716E-3,-1.5938886E-1,2.3939017E-2,-2.8348106E-1,5.9196044E-2,1.5365861E-1,-9.430381E-3,-4.3451712E-1,1.9849798E-2,1.20052464E-1,-4.666091E-2,-1.7664827E-1,-5.1284805E-2,-3.280411E-1,-9.530808E-3,-1.92189E-3,-1.3571869E-1,2.4774708E-1,-5.0893262E-2,-6.606935E-2,1.5022208E-1,-1.4269805E-1,-8.6530164E-4],"categories":[],"categories_nodes":[],"categories_segments":[],"categories_sizes":[],"default_left":[0,0,0,0,0,0,0,0,0,0,0,0,0,0,0,0,0,0,0,0,0,0,0],"id":33,"left_children":[1,3,5,7,-1,-1,9,11,-1,-1,13,-1,-1,15,17,-1,-1,19,21,-1,-1,-1,-1],"loss_changes":[2.0319742E-1,3.7922764E-1,5.778362E-1,3.365733E-1,0E0,0E0,5.3566146E-1,7.027125E-2,0E0,0E0,3.309089E-1,0E0,0E0,1.4497831E-1,3.2414287E-1,0E0,0E0,6.105082E-1,5.2985376E-1,0E0,0E0,0E0,0E0],"parents":[2147483647,0,0,1,1,2,2,3,3,6,6,7,7,10,10,13,13,14,14,17,17,18,18],"right_children":[2,4,6,8,-1,-1,10,12,-1,-1,14,-1,-1,16,18,-1,-1,20,22,-1,-1,-1,-1],"split_conditions":[-5.2390337E-1,7.3835516E-1,-4.357305E-1,6.0858315E-1,5.9196044E-2,1.5365861E-1,-1.4094E0,-3.39929E-1,1.9849798E-2,1.20052464E-1,-2.8142798E-1,-1.7664827E-1,-5.1284805E-2,2.2860678E-2,-5.300682E-1,-1.92189E-3,-1.3571869E-1,-1.6592616E-1,-4.304307E-1,-6.606935E-2,1.5022208E-1,-1.4269805E-1,-8.6530164E-4],"split_indices":[3,1,3,6,0,0,2,7,0,0,3,0,0,5,4,0,0,7,4,0,0,0,0],"split_type":[0,0,0,0,0,0,0,0,0,0,0,0,0,0,0,0,0,0,0,0,0,0,0],"sum_hessian":[4.0472805E1,6.303569E0,3.4169235E1,4.828955E0,1.4746135E0,1.2679223E0,3.2901314E1,3.2027442E0,1.626211E0,1.9290959E0,3.097222E1,1.2417026E0,1.9610418E0,2.6972146E0,2.8275003E1,1.0452528E0,1.6519618E0,3.22508E0,2.5049925E1,1.1771412E0,2.0479386E0,1.6391886E0,2.3410736E1],"tree_param":{"num_deleted":"0","num_feature":"8","num_nodes":"23","size_leaf_vector":"1"}},{"base_weights":[-7.714166E-3,-1.9925673E-1,1.6697362E-2,-1.0910787E-1,4.5366744E-3,-1.0399806E-1,3.7785646E-2,4.7122348E-2,-4.3647148E-2,1.2840624E-1,-5.0786633E-2,3.3056933E-2,1.602083E-1,-4.1133273E-1,7.321803E-2,1.5073676E-1,-3.118566E-1,-1.8529688E-1,5.2409146E-2,-2.4852611E-2,1.3544531E-1,9.606088E-2,-2.0440035E-2,-1.3127801E-1,1.5490527E-2,1.1810246E-1,-4.0490933E-2],"categories":[],"categories_nodes":[],"categories_segments":[],"categories_sizes":[],"default_left":[0,0,0,0,0,0,0,0,0,0,0,0,0,0,0,0,0,0,0,0,0,0,0,0,0,0,0],"id":34,"left_children":[1,3,5,-1,7,-1,9,-1,-1,11,13,15,-1,17,19,21,23,-1,-1,25,-1,-1,-1,-1,-1,-1,-1],"loss_changes":[1.9452898E-1,1.5914154E-1,2.9808342E-1,0E0,9.3483865E-2,0E0,2.9590225E-1,0E0,0E0,6.8253255E-1,8.773286E-1,6.852469E-1,0E0,7.125277E-1,5.657716E-1,4.816832E-1,2.2031063E-1,0E0,0E0,6.4391726E-1,0E0,0E0,0E0,0E0,0E0,0E0,0E0],"parents":[2147483647,0,0,1,1,2,2,4,4,6,6,9,9,10,10,11,11,13,13,14,14,15,15,16,16,19,19],"right_children":[2,4,6,-1,8,-1,10,-1,-1,12,14,16,-1,18,20,22,24,-1,-1,26,-1,-1,-1,-1,-1,-1,-1],"split_conditions":[-8.567611E-1,3.404062E-1,-7.931112E-1,-1.0910787E-1,-3.6960083E-1,-1.0399806E-1,-2.5007328E-1,4.7122348E-2,-4.3647148E-2,-4.4616786E-1,7.9722084E-2,7.0060205E-1,1.602083E-1,6.1708665E-1,1.2859826E0,-3.188075E-2,1.3927635E0,-1.8529688E-1,5.2409146E-2,2.60961E-1,1.3544531E-1,9.606088E-2,-2.0440035E-2,-1.3127801E-1,1.5490527E-2,1.1810246E-1,-4.0490933E-2],"split_indices":[5,1,4,0,3,0,6,0,0,6,6,5,0,7,0,4,5,0,0,6,0,0,0,0,0,0,0],"split_type":[0,0,0,0,0,0,0,0,0,0,0,0,0,0,0,0,0,0,0,0,0,0,0,0,0,0,0],"sum_hessian":[3.98914E1,3.6996977E0,3.6191704E1,1.6133264E0,2.0863712E0,1.1383895E0,3.5053314E1,1.0112375E0,1.0751338E0,1.7104017E1,1.7949297E1,1.4724281E1,2.3797357E0,4.000548E0,1.3948749E1,1.1398306E1,3.3259754E0,2.9189174E0,1.0816302E0,1.1818851E1,2.1298978E0,6.1632576E0,5.235049E0,2.3196993E0,1.0062762E0,1.9254911E0,9.89336E0],"tree_param":{"num_deleted":"0","num_feature":"8","num_nodes":"27","size_leaf_vector":"1"}},{"base_weights":[-6.0049696E-3,-7.499129E-2,5.5180885E-2,1.7638879E-1,-1.6231637E-1,2.772784E-1,-2.7761497E-2,-1.0316963E-1,4.786772E-1,-4.6654424E-1,-3.689605E-2,-1.0705969E-1,4.783226E-1,-1.9440334E-1,1.540911E-1,2.3641476E-2,1.8491846E-1,-8.769758E-3,-2.0321311E-1,-1.7265607E-1,1.7652299E-1,1.9645327E-1,2.912439E-2,-4.6813983E-1,-3.8420208E-2,1.4359023E-1,-1.6026223E-2,-2.949586E-1,6.6128574E-2,4.5667356E-1,-6.024186E-2,-3.1974856E-2,-1.8059187E-1,8.308965E-2,-1.6773504E-1,-1.0479881E-1,1.19061336E-1,-1.2051269E-1,3.1268153E-2,1.8077342E-1,2.469472E-2,-5.5845683E-3,-1.1829965E-1,1.12471975E-1,-1.2898267E-2],"categories":[],"categories_nodes":[],"categories_segments":[],"categories_sizes":[],